{"type":"LSTM","options":{"inputSize":31,"inputRange":31,"hiddenLayers":[20,20],"outputSize":31,"decayRate":0.999,"smoothEps":1e-8,"regc":0.000001,"clipval":5,"maxPredictionLength":100,"dataFormatter":{"values":["my unit-tests failed.","software","tried the program, but it was buggy.","i need a new power supply.","hardware","the drive has a 2TB capacity.","unit-tests","program","power supply","drive"],"indexTable":{"2":24,"m":0,"y":1," ":2,"u":3,"n":4,"i":5,"t":6,"-":7,"e":8,"s":9,"f":10,"a":11,"l":12,"d":13,".":14,"o":15,"w":16,"r":17,"h":18,"p":19,"g":20,",":21,"b":22,"v":23,"T":25,"B":26,"c":27,"stop-input":28,"start-output":29,"unrecognized":30},"characterTable":{"0":"m","1":"y","2":" ","3":"u","4":"n","5":"i","6":"t","7":"-","8":"e","9":"s","10":"f","11":"a","12":"l","13":"d","14":".","15":"o","16":"w","17":"r","18":"h","19":"p","20":"g","21":",","22":"b","23":"v","24":"2","25":"T","26":"B","27":"c","28":null,"29":null,"30":null},"characters":["m","y"," ","u","n","i","t","-","e","s","f","a","l","d",".","o","w","r","h","p","g",",","b","v","2","T","B","c","stop-input","start-output","unrecognized"],"specialIndexes":[28,29,30]}},"input":{"rows":32,"columns":31,"weights":{"0":-0.32539102435112,"1":-0.41181573271751404,"2":-0.12350989878177643,"3":0.26539158821105957,"4":0.31006404757499695,"5":-0.26213014125823975,"6":0.37684768438339233,"7":0.0782543271780014,"8":-0.42614802718162537,"9":2.1303985118865967,"10":-0.16142721474170685,"11":0.6822214126586914,"12":0.039952218532562256,"13":-1.0133811235427856,"14":-0.356789767742157,"15":0.21583528816699982,"16":-0.1516793668270111,"17":0.32268446683883667,"18":0.07798344641923904,"19":-0.1454198658466339,"20":0.40544578433036804,"21":0.41636839509010315,"22":-0.2160937488079071,"23":0.16070537269115448,"24":-0.3310951590538025,"25":-0.3163638710975647,"26":-0.2793519198894501,"27":-0.4746471047401428,"28":0.30868905782699585,"29":-0.07904655486345291,"30":0.20267969369888306,"31":0.7076062560081482,"32":-1.0369586944580078,"33":-2.8932061195373535,"34":1.020307183265686,"35":-0.6667374968528748,"36":-0.6179163455963135,"37":-0.2929810583591461,"38":0.4596724212169647,"39":-0.6478489637374878,"40":-0.014565182849764824,"41":-1.8003921508789062,"42":3.3917479515075684,"43":0.7029122114181519,"44":-0.05277634784579277,"45":0.053766168653964996,"46":-0.50521320104599,"47":-0.3406756818294525,"48":0.7849939465522766,"49":0.3435956835746765,"50":0.272667795419693,"51":-2.2998199462890625,"52":0.43501758575439453,"53":-0.7533133029937744,"54":-0.6589273810386658,"55":-0.8962693810462952,"56":1.4959757328033447,"57":-0.3534543812274933,"58":-0.9557449221611023,"59":-0.07646042108535767,"60":1.8902568817138672,"61":1.2593029737472534,"62":-0.7111368179321289,"63":0.9088426232337952,"64":-0.26392945647239685,"65":-0.4873568117618561,"66":0.8334124088287354,"67":0.5821213126182556,"68":0.4458235502243042,"69":-1.0243638753890991,"70":0.3162011206150055,"71":0.9409124851226807,"72":1.2605507373809814,"73":-0.16066235303878784,"74":-0.9047794938087463,"75":1.7842819690704346,"76":-0.8768083453178406,"77":0.7355157732963562,"78":0.7252066135406494,"79":-0.6924134492874146,"80":-0.7867251634597778,"81":-1.4472532272338867,"82":-0.015202314592897892,"83":-1.706229329109192,"84":0.6771373748779297,"85":0.5334404706954956,"86":0.7822861075401306,"87":1.3345609903335571,"88":2.3486990928649902,"89":0.76950603723526,"90":1.0689671039581299,"91":0.2403293251991272,"92":-0.7225445508956909,"93":-1.1942346096038818,"94":-0.4032455086708069,"95":-0.07957662642002106,"96":-1.641218662261963,"97":0.9984270334243774,"98":0.9516278505325317,"99":1.3198814392089844,"100":-1.3941348791122437,"101":1.7846558094024658,"102":-0.9765359163284302,"103":1.1270582675933838,"104":0.030747629702091217,"105":-1.2334492206573486,"106":-0.11016135662794113,"107":-1.0608813762664795,"108":1.2390079498291016,"109":1.5000574588775635,"110":-1.9568595886230469,"111":-1.2369039058685303,"112":-0.8549550175666809,"113":0.38885435461997986,"114":0.28244954347610474,"115":1.34250009059906,"116":0.9832074046134949,"117":1.2804845571517944,"118":0.24137139320373535,"119":1.152886152267456,"120":1.8212964534759521,"121":1.2478760480880737,"122":-0.24065907299518585,"123":1.3280551433563232,"124":-1.439767599105835,"125":0.2101012021303177,"126":1.906133770942688,"127":0.28875914216041565,"128":0.6430973410606384,"129":2.216771125793457,"130":-0.07373487949371338,"131":-2.127098560333252,"132":-0.21425656974315643,"133":1.457519769668579,"134":2.053511381149292,"135":-1.803004264831543,"136":0.21401268243789673,"137":-0.92046058177948,"138":0.10958210378885269,"139":-0.19976723194122314,"140":-0.13576683402061462,"141":0.14936481416225433,"142":-0.1840166598558426,"143":-0.6495346426963806,"144":0.5045391321182251,"145":0.1832200139760971,"146":-0.14818833768367767,"147":1.0288290977478027,"148":2.376558303833008,"149":0.9846608638763428,"150":0.5408183932304382,"151":-0.11541062593460083,"152":0.35539767146110535,"153":-3.013195037841797,"154":-2.570422887802124,"155":1.1244722604751587,"156":-1.0121372938156128,"157":-1.5884195566177368,"158":1.0394210815429688,"159":-0.9090096950531006,"160":-1.4068156480789185,"161":-0.9071081280708313,"162":1.4913326501846313,"163":-1.1567217111587524,"164":-0.34104230999946594,"165":-1.1859763860702515,"166":1.05911386013031,"167":1.0492677688598633,"168":-0.7655953168869019,"169":0.9596745371818542,"170":-0.7699049711227417,"171":-0.9211694002151489,"172":0.9118614792823792,"173":1.2183220386505127,"174":0.9461478590965271,"175":-0.4739008843898773,"176":1.104673147201538,"177":-0.9808712005615234,"178":-1.076908826828003,"179":-1.107223629951477,"180":0.45056721568107605,"181":-1.1737613677978516,"182":-1.0355502367019653,"183":-1.133874535560608,"184":0.9070005416870117,"185":1.6414400339126587,"186":0.9782755970954895,"187":-0.943602442741394,"188":-1.1809473037719727,"189":0.991855800151825,"190":-0.8815650939941406,"191":-1.0817970037460327,"192":-0.9159232378005981,"193":1.0324770212173462,"194":-1.0873937606811523,"195":0.14022746682167053,"196":-1.0845091342926025,"197":1.2283849716186523,"198":1.063217282295227,"199":-0.6316571831703186,"200":0.8509432673454285,"201":-1.034299612045288,"202":-1.0177266597747803,"203":0.8662272095680237,"204":0.9314376711845398,"205":0.7666312456130981,"206":-0.8133076429367065,"207":0.9078974723815918,"208":-0.9330660104751587,"209":-0.8022644519805908,"210":-1.098521113395691,"211":0.8078938722610474,"212":-0.9274086356163025,"213":-1.071018099784851,"214":-0.8822305202484131,"215":0.4886539578437805,"216":0.9396387338638306,"217":0.2635840177536011,"218":-0.4719359576702118,"219":1.3450616598129272,"220":0.5069611072540283,"221":0.2845081388950348,"222":-0.1630704253911972,"223":-0.34356173872947693,"224":-0.08368729054927826,"225":-0.37892019748687744,"226":1.1299452781677246,"227":-0.1223355233669281,"228":-2.121284246444702,"229":0.3190297484397888,"230":-1.4724061489105225,"231":0.41893574595451355,"232":-0.4319426417350769,"233":-0.40468746423721313,"234":0.6353954672813416,"235":0.48566147685050964,"236":-0.05560678243637085,"237":1.2618721723556519,"238":0.34920403361320496,"239":-0.35296598076820374,"240":0.2932355999946594,"241":1.6125774383544922,"242":0.058431945741176605,"243":-0.6567306518554688,"244":-0.7342069745063782,"245":-0.21955737471580505,"246":-1.1567734479904175,"247":0.2170996218919754,"248":1.1408363580703735,"249":-0.8196755647659302,"250":-0.2533637583255768,"251":0.9764406681060791,"252":-0.7394432425498962,"253":-1.460496425628662,"254":-1.012441873550415,"255":1.3927079439163208,"256":-1.1679229736328125,"257":1.3568166494369507,"258":-0.9059246778488159,"259":2.340400457382202,"260":1.0408827066421509,"261":-0.5190107226371765,"262":0.9181228280067444,"263":-0.8342301845550537,"264":-0.9135831594467163,"265":1.027737021446228,"266":1.0987231731414795,"267":0.8712204694747925,"268":-0.4679409861564636,"269":0.8435436487197876,"270":-0.9238539934158325,"271":-0.8887751698493958,"272":-1.060531497001648,"273":0.6851098537445068,"274":-0.9198428392410278,"275":-1.0265437364578247,"276":-0.9981642365455627,"277":0.8369568586349487,"278":1.424497365951538,"279":-0.0646023377776146,"280":-0.29212674498558044,"281":-0.45946842432022095,"282":-0.5181411504745483,"283":0.16028361022472382,"284":-0.5401619076728821,"285":0.5364255309104919,"286":0.2498512864112854,"287":0.24230694770812988,"288":0.5430977940559387,"289":-0.3667050898075104,"290":0.5604900121688843,"291":-0.4036963880062103,"292":0.011844012886285782,"293":-0.5882413983345032,"294":0.6182712912559509,"295":0.27978330850601196,"296":-0.25330376625061035,"297":-0.3682195544242859,"298":-0.16544072329998016,"299":0.1395505964756012,"300":-0.18599320948123932,"301":0.530901312828064,"302":-0.06945996731519699,"303":-0.44057580828666687,"304":0.05705409497022629,"305":0.504843533039093,"306":0.1920851171016693,"307":0.35637927055358887,"308":0.4670834541320801,"309":0.09272361546754837,"310":-0.32890424132347107,"311":1.2994425296783447,"312":1.2840001583099365,"313":-0.4740409851074219,"314":0.3498430550098419,"315":0.5188338756561279,"316":0.5396458506584167,"317":-0.6457331776618958,"318":0.22914177179336548,"319":0.320210725069046,"320":0.9464496970176697,"321":-1.3916513919830322,"322":-0.4161306619644165,"323":-0.8777438998222351,"324":-0.5286716222763062,"325":0.3911709785461426,"326":0.4719201326370239,"327":-0.42471855878829956,"328":-0.7058294415473938,"329":-0.5094423890113831,"330":1.3035986423492432,"331":-0.8649157285690308,"332":0.5349144339561462,"333":0.11266780644655228,"334":-0.029758663848042488,"335":-0.091732457280159,"336":0.7742639780044556,"337":0.16153976321220398,"338":0.8481931090354919,"339":-1.880919098854065,"340":-1.7231155633926392,"341":0.1476888656616211,"342":-0.4002598524093628,"343":-1.021499752998352,"344":0.15904124081134796,"345":0.5779919624328613,"346":0.16741497814655304,"347":0.37939703464508057,"348":-0.13200166821479797,"349":0.26969993114471436,"350":-0.22911307215690613,"351":0.10615745186805725,"352":1.669264793395996,"353":0.5679494142532349,"354":-0.5227668285369873,"355":-0.1613903045654297,"356":-0.6903344392776489,"357":0.1885979175567627,"358":0.22973813116550446,"359":-0.26954150199890137,"360":-0.44570860266685486,"361":-1.4471044540405273,"362":-0.19824020564556122,"363":0.03953222930431366,"364":0.1362634152173996,"365":-0.4117397665977478,"366":0.18102769553661346,"367":0.13694354891777039,"368":-1.0888299942016602,"369":0.29818299412727356,"370":0.3392450213432312,"371":-0.1688811182975769,"372":-0.4744409918785095,"373":0.3835955560207367,"374":0.14969749748706818,"375":-0.5336967706680298,"376":0.39906376600265503,"377":0.36476799845695496,"378":0.7154192924499512,"379":-0.6199034452438354,"380":0.30304357409477234,"381":-0.2311934381723404,"382":0.3929106891155243,"383":-0.10260383784770966,"384":-0.3421817421913147,"385":-0.19268980622291565,"386":-0.4929628372192383,"387":0.5461896061897278,"388":0.35963329672813416,"389":-0.41737112402915955,"390":-0.40546882152557373,"391":-0.33585506677627563,"392":0.4911917746067047,"393":-0.48204806447029114,"394":0.6320613622665405,"395":0.07648160308599472,"396":-0.15453116595745087,"397":-0.13961322605609894,"398":0.39715340733528137,"399":0.29276329278945923,"400":0.5735489130020142,"401":-0.08755537122488022,"402":-0.3150525987148285,"403":1.280265212059021,"404":-0.9003877639770508,"405":1.2381294965744019,"406":0.701752781867981,"407":-1.419571876525879,"408":-1.4633418321609497,"409":-0.9778023362159729,"410":0.9771522283554077,"411":-0.6161392331123352,"412":1.3410197496414185,"413":-1.1126140356063843,"414":-1.1473528146743774,"415":0.8317553997039795,"416":-1.0730935335159302,"417":0.7403074502944946,"418":-0.6489601731300354,"419":-0.6906026005744934,"420":0.6982059478759766,"421":0.9989959001541138,"422":1.169399380683899,"423":0.7287768721580505,"424":0.7411363124847412,"425":-0.7472057342529297,"426":-1.392594337463379,"427":-1.2022558450698853,"428":0.6858494877815247,"429":-1.0667724609375,"430":-0.7905713319778442,"431":-1.0236295461654663,"432":-1.177638292312622,"433":-1.0049431324005127,"434":-0.332196444272995,"435":0.2940334379673004,"436":-0.7964206337928772,"437":-0.46063029766082764,"438":0.517534613609314,"439":0.5387352108955383,"440":0.5348745584487915,"441":-0.47092869877815247,"442":0.5867226719856262,"443":-1.133132815361023,"444":0.553883969783783,"445":0.8112803101539612,"446":-0.296728253364563,"447":0.36980071663856506,"448":-0.41406145691871643,"449":0.4544578194618225,"450":0.4936084747314453,"451":-0.3178384304046631,"452":-0.4085575044155121,"453":-0.4631052613258362,"454":-0.9396873712539673,"455":-0.19497333467006683,"456":0.42395204305648804,"457":0.6687092185020447,"458":1.1781530380249023,"459":1.0114853382110596,"460":0.18530693650245667,"461":0.25375595688819885,"462":0.5546340942382812,"463":0.6099122166633606,"464":-0.28133487701416016,"465":0.350301593542099,"466":0.4110182523727417,"467":2.752366065979004,"468":-0.3503013551235199,"469":-0.9980940222740173,"470":-0.3176436424255371,"471":-0.6117100119590759,"472":-0.21343491971492767,"473":0.5109336972236633,"474":-0.6565560102462769,"475":0.45624053478240967,"476":-2.3566713333129883,"477":0.14249807596206665,"478":-2.3494162559509277,"479":1.9178365468978882,"480":-1.0790596008300781,"481":-0.2293093353509903,"482":0.21904964745044708,"483":1.029936671257019,"484":1.1416445970535278,"485":2.152632236480713,"486":-0.3517511785030365,"487":-0.002789292950183153,"488":-1.0185928344726562,"489":-0.6708136200904846,"490":-0.10223265737295151,"491":-0.04055679962038994,"492":1.2651325464248657,"493":-0.21422527730464935,"494":-1.5193697214126587,"495":-1.5547844171524048,"496":0.4529164433479309,"497":-0.34877437353134155,"498":0.4281133711338043,"499":0.6580084562301636,"500":-0.40603727102279663,"501":0.1592641919851303,"502":-0.5849545001983643,"503":-0.09568963199853897,"504":-0.13976463675498962,"505":-1.0980303287506104,"506":-0.15764857828617096,"507":0.6863445043563843,"508":0.35843852162361145,"509":-0.3469521403312683,"510":0.582254946231842,"511":-0.6709780693054199,"512":-0.5761668086051941,"513":0.41816747188568115,"514":0.1171349287033081,"515":0.5740945935249329,"516":-1.4094500541687012,"517":0.6701213121414185,"518":-0.5779278874397278,"519":-0.147936150431633,"520":-0.9113575220108032,"521":0.8513151407241821,"522":-0.37383976578712463,"523":-0.12672176957130432,"524":-0.3958393335342407,"525":0.9120601415634155,"526":-0.2051873356103897,"527":-0.15139634907245636,"528":0.421365350484848,"529":-1.2603665590286255,"530":-0.3203599452972412,"531":0.8591218590736389,"532":0.3063828647136688,"533":0.048250842839479446,"534":-0.11201919615268707,"535":0.4506435692310333,"536":-0.4611830711364746,"537":0.10868807882070541,"538":1.508426547050476,"539":-0.3740631937980652,"540":1.4301817417144775,"541":-0.5552902221679688,"542":0.12988238036632538,"543":0.28114786744117737,"544":-0.24970851838588715,"545":-0.3929212689399719,"546":-0.828942060470581,"547":-1.5700758695602417,"548":-0.3066081702709198,"549":0.2711856961250305,"550":0.6020015478134155,"551":-0.14201363921165466,"552":0.8334389328956604,"553":0.08897493779659271,"554":0.13173705339431763,"555":-0.6136694550514221,"556":0.547008216381073,"557":-0.25803160667419434,"558":0.6022670269012451,"559":-0.9621492028236389,"560":0.21815568208694458,"561":0.6749887466430664,"562":-0.6246664524078369,"563":-0.6946215629577637,"564":-0.5241446495056152,"565":0.6590672135353088,"566":-0.6917088031768799,"567":0.5172494649887085,"568":-0.6345774531364441,"569":-0.21857115626335144,"570":0.6753700971603394,"571":0.09284095466136932,"572":0.7201893329620361,"573":-0.6031731367111206,"574":-0.6611073613166809,"575":0.6836293339729309,"576":0.5566660165786743,"577":0.6823379397392273,"578":0.6184536814689636,"579":0.6754735112190247,"580":-0.6555455923080444,"581":-0.5791173577308655,"582":-0.7886601090431213,"583":-0.22515946626663208,"584":-0.694892406463623,"585":-0.3172265887260437,"586":-0.4473786950111389,"587":0.06803864985704422,"588":0.3389367163181305,"589":-1.1488264799118042,"590":-0.5959596037864685,"591":-1.5628368854522705,"592":0.1892993450164795,"593":0.7936355471611023,"594":0.028664836660027504,"595":1.0304558277130127,"596":-0.027828041464090347,"597":-0.09907010942697525,"598":0.5274658799171448,"599":-0.20751938223838806,"600":1.6914324760437012,"601":-0.141693115234375,"602":2.431154251098633,"603":-1.423448085784912,"604":1.2798335552215576,"605":0.015426967293024063,"606":-0.09250018745660782,"607":-0.06925580650568008,"608":-1.153594970703125,"609":-1.8946857452392578,"610":0.342803418636322,"611":-0.13527333736419678,"612":1.0586358308792114,"613":1.2944862842559814,"614":1.724596619606018,"615":-0.12055742740631104,"616":-0.1112494245171547,"617":1.0792423486709595,"618":-0.42762887477874756,"619":0.8642187714576721,"620":0.8099861145019531,"621":-0.7470688223838806,"622":0.4714520573616028,"623":0.7548426985740662,"624":-0.7189525365829468,"625":-0.6283125281333923,"626":-0.7196055054664612,"627":0.7150596976280212,"628":-0.7756808996200562,"629":0.4388233423233032,"630":-0.7656232714653015,"631":-0.482466459274292,"632":0.6655331254005432,"633":-0.9116894006729126,"634":0.7317717671394348,"635":-0.7667604088783264,"636":-0.7598657011985779,"637":0.7871517539024353,"638":0.7444305419921875,"639":0.6936466693878174,"640":0.556528627872467,"641":0.7812671661376953,"642":-0.7197183966636658,"643":-0.7070490121841431,"644":-0.789307713508606,"645":-0.6778183579444885,"646":-0.7565401792526245,"647":-0.6580009460449219,"648":-0.8932740688323975,"649":-0.3379550576210022,"650":0.7526314854621887,"651":-0.6152745485305786,"652":-1.3336436748504639,"653":0.19591709971427917,"654":1.4067180156707764,"655":0.4193936884403229,"656":0.47798752784729004,"657":-1.0843945741653442,"658":-0.6334772109985352,"659":-1.3150057792663574,"660":0.9264663457870483,"661":0.8740751147270203,"662":0.22288887202739716,"663":1.1377760171890259,"664":-0.14572866261005402,"665":1.1227072477340698,"666":-1.0991387367248535,"667":-1.2566992044448853,"668":1.1845371723175049,"669":1.3935215473175049,"670":1.0277585983276367,"671":-0.13156644999980927,"672":1.457831621170044,"673":-1.2901849746704102,"674":0.41350841522216797,"675":0.4646863341331482,"676":-0.6122321486473083,"677":-1.3500499725341797,"678":-1.1013556718826294,"679":-1.3607467412948608,"680":0.21416714787483215,"681":2.0242421627044678,"682":1.441784143447876,"683":-1.7846863269805908,"684":1.368530035018921,"685":1.578384518623352,"686":-1.7465245723724365,"687":-1.655904769897461,"688":-0.9999787211418152,"689":1.1683417558670044,"690":-1.734043002128601,"691":1.6148349046707153,"692":-1.1705039739608765,"693":-1.9502233266830444,"694":1.485280990600586,"695":-1.2668954133987427,"696":0.9732215404510498,"697":-1.015781283378601,"698":-1.0991333723068237,"699":1.4993739128112793,"700":1.3644357919692993,"701":1.5441222190856934,"702":-0.4974746108055115,"703":1.49168860912323,"704":-1.2454581260681152,"705":-1.8365882635116577,"706":-2.0668692588806152,"707":-3.175079345703125,"708":-1.2201507091522217,"709":-1.5154224634170532,"710":-0.775902509689331,"711":-1.3131446838378906,"712":0.6499168872833252,"713":-0.7225766181945801,"714":0.8164126873016357,"715":-3.069143533706665,"716":-2.584249496459961,"717":0.9721378087997437,"718":0.704703688621521,"719":2.831294059753418,"720":-0.3455009460449219,"721":1.9597975015640259,"722":-2.7172439098358154,"723":0.43685150146484375,"724":1.0489016771316528,"725":-1.7348707914352417,"726":0.5447518825531006,"727":-1.2599377632141113,"728":2.573657989501953,"729":1.4272754192352295,"730":-1.4105168581008911,"731":-1.4449409246444702,"732":-0.5090285539627075,"733":-0.3531968891620636,"734":0.10772529989480972,"735":1.529317855834961,"736":1.1642478704452515,"737":0.3045784831047058,"738":-3.2898612022399902,"739":-0.07699450105428696,"740":1.6462175846099854,"741":0.5990867614746094,"742":1.129040002822876,"743":0.4294397532939911,"744":-0.16612973809242249,"745":-1.3395367860794067,"746":-0.2653850018978119,"747":1.502237319946289,"748":0.22801832854747772,"749":-1.7033880949020386,"750":0.3655717670917511,"751":1.6314095258712769,"752":-1.6758489608764648,"753":1.0549055337905884,"754":-1.6219888925552368,"755":0.98941570520401,"756":1.5848240852355957,"757":-0.06940577179193497,"758":-0.24381576478481293,"759":0.16656683385372162,"760":-1.6819795370101929,"761":1.4991415739059448,"762":1.3978885412216187,"763":-0.23333387076854706,"764":-1.2248213291168213,"765":1.5378398895263672,"766":-1.5609060525894165,"767":0.32119953632354736,"768":0.011905644088983536,"769":2.937243938446045,"770":-1.6325263977050781,"771":-1.603149175643921,"772":0.3555454909801483,"773":0.17083650827407837,"774":0.9992344975471497,"775":-1.3790398836135864,"776":-1.335666298866272,"777":-1.3281755447387695,"778":-1.3333356380462646,"779":1.3476455211639404,"780":1.4055997133255005,"781":1.4580971002578735,"782":-1.3284927606582642,"783":1.4979737997055054,"784":1.4517347812652588,"785":1.394626259803772,"786":1.407577395439148,"787":-1.3607028722763062,"788":1.3515684604644775,"789":-1.3923218250274658,"790":1.4294112920761108,"791":1.5853914022445679,"792":1.247355580329895,"793":-1.360205888748169,"794":-1.4616029262542725,"795":-1.3131247758865356,"796":1.313800573348999,"797":1.4285207986831665,"798":1.3702788352966309,"799":1.4268379211425781,"800":1.4553965330123901,"801":1.410043716430664,"802":-1.3378247022628784,"803":1.3936371803283691,"804":1.3483473062515259,"805":1.3496360778808594,"806":-1.4020532369613647,"807":1.4161406755447388,"808":-1.3752615451812744,"809":-1.4484543800354004,"810":1.3345534801483154,"811":1.3162444829940796,"812":1.3653467893600464,"813":-1.3731855154037476,"814":1.3582814931869507,"815":-1.3795100450515747,"816":1.3533154726028442,"817":1.402268409729004,"818":-1.4158984422683716,"819":1.2375472784042358,"820":-1.4023561477661133,"821":1.4460909366607666,"822":1.4676591157913208,"823":-1.3593902587890625,"824":-1.4552181959152222,"825":-1.42953360080719,"826":-1.3232450485229492,"827":-1.440764307975769,"828":1.3236033916473389,"829":1.3632633686065674,"830":1.3531876802444458,"831":1.4515479803085327,"832":1.3744025230407715,"833":1.404001235961914,"834":1.3732187747955322,"835":1.4463614225387573,"836":-1.4738563299179077,"837":1.3320045471191406,"838":-1.4126160144805908,"839":1.4980717897415161,"840":1.453917145729065,"841":-1.3761088848114014,"842":-1.3538837432861328,"843":-1.398149013519287,"844":1.4534724950790405,"845":-1.3901132345199585,"846":1.363602876663208,"847":-1.4281585216522217,"848":-1.4063642024993896,"849":1.3285126686096191,"850":-1.542712926864624,"851":1.4639248847961426,"852":-1.4388269186019897,"853":-1.4214445352554321,"854":1.3307089805603027,"855":1.4250038862228394,"856":1.3732528686523438,"857":1.3096048831939697,"858":1.3153032064437866,"859":-1.325186014175415,"860":-1.384403109550476,"861":-1.4426320791244507,"862":-1.40506112575531,"863":-1.3324559926986694,"864":-1.3131588697433472,"865":-1.4046292304992676,"866":-1.3997992277145386,"867":1.3427225351333618,"868":-2.3817949295043945,"869":-1.1892585754394531,"870":-3.184605360031128,"871":0.9453542828559875,"872":1.6958411931991577,"873":-1.1202754974365234,"874":2.0703301429748535,"875":0.9463328719139099,"876":-1.0076836347579956,"877":1.2064234018325806,"878":-1.0825930833816528,"879":3.0328681468963623,"880":0.13821858167648315,"881":1.5264166593551636,"882":-2.730297565460205,"883":2.6458494663238525,"884":-0.8886451721191406,"885":1.0773406028747559,"886":0.22914575040340424,"887":-1.9393569231033325,"888":1.456852912902832,"889":0.9957642555236816,"890":-0.6007417440414429,"891":1.602448582649231,"892":1.4178860187530518,"893":-0.7475401163101196,"894":-0.8511960506439209,"895":-1.143406867980957,"896":1.7843106985092163,"897":-1.4579267501831055,"898":1.2278916835784912,"899":0.3224567174911499,"900":-0.4236549735069275,"901":1.1871213912963867,"902":0.005115015432238579,"903":-0.0422484427690506,"904":-0.24350640177726746,"905":0.05999871343374252,"906":0.029239917173981667,"907":0.03234754875302315,"908":0.05851750448346138,"909":-0.19943946599960327,"910":-1.7563071250915527,"911":0.14645352959632874,"912":-2.185852527618408,"913":0.22216364741325378,"914":-0.08099517971277237,"915":-0.22868311405181885,"916":0.5725098848342896,"917":0.3575795590877533,"918":0.06308763474225998,"919":0.9398830533027649,"920":0.06814783066511154,"921":-0.003720929380506277,"922":-0.04412110149860382,"923":0.5688093304634094,"924":0.3945763111114502,"925":-0.671896755695343,"926":-0.886480450630188,"927":-0.011656001210212708,"928":-1.1345443725585938,"929":0.06823468208312988,"930":0.5835003852844238,"931":-0.7386612892150879,"932":0.048398904502391815,"933":0.5760095119476318,"934":-0.6097632646560669,"935":-1.3076339960098267,"936":-0.6857168674468994,"937":0.9716006517410278,"938":-0.7008041739463806,"939":-0.2248181849718094,"940":-0.9673287272453308,"941":-0.4743805527687073,"942":0.622559666633606,"943":-0.3827778995037079,"944":0.5168220400810242,"945":-0.5971639752388,"946":-1.020264983177185,"947":0.5637050271034241,"948":0.7048531174659729,"949":0.43414705991744995,"950":-0.2962811291217804,"951":0.23650312423706055,"952":-0.5993914008140564,"953":-0.6934537887573242,"954":-0.8200629353523254,"955":0.08482147753238678,"956":-0.6079684495925903,"957":-0.6026664972305298,"958":-0.5239392518997192,"959":-0.10828054696321487,"960":0.4883524179458618,"961":0.0050103808753192425,"962":0.053548019379377365,"963":-0.015069914050400257,"964":-0.03728532791137695,"965":-0.04472990334033966,"966":0.019800666719675064,"967":0.04389266297221184,"968":-0.05387371405959129,"969":-0.07489226758480072,"970":0.06807897984981537,"971":0.008369345217943192,"972":0.07243960350751877,"973":-0.011421413160860538,"974":0.017431804910302162,"975":-0.07132834941148758,"976":-0.032162729650735855,"977":0.0696025863289833,"978":0.02541062980890274,"979":-0.05946902558207512,"980":0.0004068529815413058,"981":0.04809725657105446,"982":-0.07274138182401657,"983":-0.05843294411897659,"984":-0.04112296178936958,"985":-0.06673403084278107,"986":0.035895202308893204,"987":0.04298724606633186,"988":0.06885255873203278,"989":0.020841538906097412,"990":-0.06816921383142471,"991":-0.012634163722395897}},"hiddenLayers":[{"inputMatrix":{"rows":20,"columns":31,"weights":{"0":-0.39655375480651855,"1":0.6179258823394775,"2":-0.3055779039859772,"3":-0.7146511077880859,"4":0.5024182796478271,"5":0.43104836344718933,"6":0.9204684495925903,"7":-0.2797575891017914,"8":0.9271036982536316,"9":-0.9618366360664368,"10":0.2450464814901352,"11":0.448051780462265,"12":-1.053382396697998,"13":0.945527195930481,"14":-0.8420343399047852,"15":0.7088704109191895,"16":0.7202591300010681,"17":-0.7486908435821533,"18":-0.8093076944351196,"19":-0.6703373789787292,"20":0.18148738145828247,"21":-0.7444679737091064,"22":0.921995222568512,"23":-0.17634008824825287,"24":-0.4388061761856079,"25":-0.7398218512535095,"26":0.5963169932365417,"27":0.960723340511322,"28":0.7415348291397095,"29":0.1669015884399414,"30":-0.02432260662317276,"31":-0.1440601497888565,"32":-0.04403884708881378,"33":-1.4166847467422485,"34":0.22790759801864624,"35":0.4612118601799011,"36":-0.38569965958595276,"37":-0.11380257457494736,"38":0.4016299843788147,"39":-0.0734897181391716,"40":-1.0064550638198853,"41":-0.4298146069049835,"42":0.4745637774467468,"43":0.11796644330024719,"44":0.16407716274261475,"45":-0.2476431131362915,"46":0.1051037460565567,"47":-0.29836001992225647,"48":0.16992759704589844,"49":0.35863935947418213,"50":-0.5537883043289185,"51":-1.552230954170227,"52":-0.01000975538045168,"53":-0.17831814289093018,"54":0.2952181100845337,"55":0.48809635639190674,"56":1.3063491582870483,"57":-0.3934297263622284,"58":-0.5399715304374695,"59":-0.2828325927257538,"60":0.6054347157478333,"61":1.4411309957504272,"62":-0.5442042946815491,"63":0.516400158405304,"64":0.29932790994644165,"65":-0.7142022848129272,"66":0.6207028031349182,"67":0.3174450695514679,"68":0.6477997303009033,"69":-0.5905161499977112,"70":0.6587890982627869,"71":0.11940189450979233,"72":0.5820626020431519,"73":-0.23214757442474365,"74":-0.8494960069656372,"75":0.8199415802955627,"76":-0.6795174479484558,"77":0.7539919018745422,"78":0.6432514190673828,"79":-0.6652365922927856,"80":-0.7879696488380432,"81":-0.6922406554222107,"82":0.13818667829036713,"83":-0.66938716173172,"84":0.7831891775131226,"85":0.48365518450737,"86":-0.043796706944704056,"87":0.45687341690063477,"88":0.6743945479393005,"89":0.8645597100257874,"90":0.43014001846313477,"91":-0.16522248089313507,"92":-0.8375868797302246,"93":-1.1763477325439453,"94":-0.11648393422365189,"95":0.26557329297065735,"96":-0.061344537883996964,"97":1.0266939401626587,"98":0.4465073049068451,"99":0.3457791209220886,"100":-0.5649065375328064,"101":-0.04586920142173767,"102":0.6283305287361145,"103":0.8865031599998474,"104":-0.23827630281448364,"105":0.1829172819852829,"106":0.26487937569618225,"107":-0.3699958920478821,"108":0.3193385601043701,"109":-0.16526898741722107,"110":-0.07228163629770279,"111":0.27285438776016235,"112":-0.6139242649078369,"113":0.29807600378990173,"114":0.08668206632137299,"115":0.013298116624355316,"116":1.1258362531661987,"117":1.2399697303771973,"118":-0.09223165363073349,"119":-0.04387276619672775,"120":-0.10719446837902069,"121":0.3243866562843323,"122":-0.8817728161811829,"123":0.5143935084342957,"124":0.7386735081672668,"125":-0.6617864966392517,"126":-0.022168798372149467,"127":0.7441033124923706,"128":-0.2733830213546753,"129":-0.6375983357429504,"130":-0.6196373701095581,"131":0.3994969427585602,"132":-0.6040237545967102,"133":0.4959021210670471,"134":-0.7117031812667847,"135":-0.0006875827093608677,"136":0.715713381767273,"137":-0.08834778517484665,"138":0.5124680399894714,"139":-0.6848292946815491,"140":-0.4698338508605957,"141":0.6929894089698792,"142":0.5661638975143433,"143":0.38677263259887695,"144":-0.16632325947284698,"145":0.5721603035926819,"146":-0.5501047372817993,"147":-0.2537066340446472,"148":0.36264801025390625,"149":-0.16366133093833923,"150":-0.7275485396385193,"151":-0.9685540199279785,"152":-0.6498137712478638,"153":0.1622605174779892,"154":1.056037187576294,"155":-0.5284207463264465,"156":0.004155851900577545,"157":0.15170595049858093,"158":-0.25477904081344604,"159":1.1424347162246704,"160":0.5439177751541138,"161":0.7335253953933716,"162":-0.7581403851509094,"163":0.11171352118253708,"164":1.011387825012207,"165":0.299017071723938,"166":-0.7457641959190369,"167":-0.461662620306015,"168":-0.6148189306259155,"169":-0.9163273572921753,"170":0.7495554089546204,"171":0.3972660303115845,"172":-0.10125759989023209,"173":-0.6054766178131104,"174":-1.0948432683944702,"175":0.42671239376068115,"176":-0.3549588620662689,"177":0.5954158902168274,"178":1.118904948234558,"179":1.4741833209991455,"180":0.7581899762153625,"181":0.21760065853595734,"182":-0.7566473484039307,"183":0.6252217292785645,"184":-0.4449683427810669,"185":0.1468152403831482,"186":-0.3120783567428589,"187":0.5309152007102966,"188":-0.08465411514043808,"189":-0.9008756875991821,"190":0.13437622785568237,"191":0.19704778492450714,"192":0.6211908459663391,"193":-0.04723697155714035,"194":1.0264673233032227,"195":-0.6787629723548889,"196":0.1330893635749817,"197":0.08885927498340607,"198":-1.0136258602142334,"199":0.3803299069404602,"200":-0.682509183883667,"201":0.7054197192192078,"202":0.8096053004264832,"203":-0.9465834498405457,"204":-0.8994702696800232,"205":-0.2421586513519287,"206":0.4026862382888794,"207":-0.4118325412273407,"208":0.8500241041183472,"209":0.16240093111991882,"210":-0.15204423666000366,"211":-0.8636605739593506,"212":0.9167778491973877,"213":1.0034664869308472,"214":0.6317734718322754,"215":0.30847132205963135,"216":0.1302357316017151,"217":0.4118780493736267,"218":-0.5007652044296265,"219":-0.227763831615448,"220":0.5198193192481995,"221":-0.26773324608802795,"222":-0.1644526720046997,"223":-0.7335818409919739,"224":0.21033529937267303,"225":-0.6527625322341919,"226":0.028983332216739655,"227":-0.31458449363708496,"228":0.24549059569835663,"229":0.7030734419822693,"230":0.9080137610435486,"231":0.5615674257278442,"232":-0.5239273905754089,"233":-0.4953703284263611,"234":0.37479954957962036,"235":0.47474947571754456,"236":0.4136401116847992,"237":-0.21325591206550598,"238":0.4304950535297394,"239":-0.4427960216999054,"240":-0.04637438803911209,"241":0.36073508858680725,"242":-0.47381940484046936,"243":-0.3468180000782013,"244":-0.4560590088367462,"245":-0.5120689272880554,"246":0.33435744047164917,"247":0.6760854721069336,"248":-0.4254988431930542,"249":0.6356571316719055,"250":0.162947878241539,"251":-0.6344959735870361,"252":0.5191101431846619,"253":0.7163757681846619,"254":0.5017825961112976,"255":-0.5755219459533691,"256":0.7538262605667114,"257":-0.45065581798553467,"258":0.7804434299468994,"259":-0.16764266788959503,"260":-0.6007561087608337,"261":0.7830033898353577,"262":-0.50334233045578,"263":0.40433043241500854,"264":0.5784786939620972,"265":-0.6593102216720581,"266":-0.775794506072998,"267":-0.6537507772445679,"268":-0.2617509961128235,"269":-0.585801899433136,"270":0.5876185894012451,"271":0.5342836976051331,"272":0.22765332460403442,"273":1.2024869918823242,"274":0.7198500037193298,"275":0.6715717911720276,"276":0.3102017939090729,"277":-0.12788233160972595,"278":-0.8379764556884766,"279":-0.18552403151988983,"280":0.459941565990448,"281":-0.16207554936408997,"282":-0.4907912015914917,"283":0.4809007942676544,"284":0.5670713186264038,"285":0.49320346117019653,"286":-0.497305303812027,"287":0.713858962059021,"288":-0.35420528054237366,"289":0.5180498361587524,"290":0.047064222395420074,"291":-0.7158223986625671,"292":-0.6937255859375,"293":-0.4548908472061157,"294":0.3416990637779236,"295":0.45972147583961487,"296":-0.30227982997894287,"297":-0.6794404983520508,"298":-0.5877905488014221,"299":0.05098062753677368,"300":-0.4968138337135315,"301":0.6497477889060974,"302":0.2800500690937042,"303":0.1843334585428238,"304":-0.5455104112625122,"305":0.45196598768234253,"306":0.3683348000049591,"307":0.35515543818473816,"308":0.09434112906455994,"309":-0.5892328023910522,"310":-0.421604722738266,"311":0.6353430151939392,"312":-0.009289240464568138,"313":-0.4931187927722931,"314":0.5354065299034119,"315":1.0839104652404785,"316":0.4293123185634613,"317":-0.8381955623626709,"318":0.8591812252998352,"319":-0.4346083700656891,"320":0.8899834156036377,"321":0.12374918907880783,"322":-0.4174891710281372,"323":-0.1851041465997696,"324":-0.478484570980072,"325":0.23561717569828033,"326":0.5772128105163574,"327":-0.523482620716095,"328":-1.0178743600845337,"329":-0.6283913254737854,"330":-0.023553943261504173,"331":-0.6069422960281372,"332":0.6546474695205688,"333":0.46139398217201233,"334":0.24425514042377472,"335":0.20798052847385406,"336":0.989351212978363,"337":0.25091561675071716,"338":0.356602281332016,"339":-0.19977004826068878,"340":-1.2502585649490356,"341":0.3195185661315918,"342":-0.8142601251602173,"343":-0.711092472076416,"344":0.610916256904602,"345":-0.9383509755134583,"346":-0.8845560550689697,"347":-0.646721601486206,"348":0.9724143147468567,"349":-0.7427240610122681,"350":-0.6984999179840088,"351":-0.956325113773346,"352":0.27585476636886597,"353":0.8903646469116211,"354":1.1912001371383667,"355":0.5313916206359863,"356":-0.2649615406990051,"357":-0.7717947959899902,"358":0.5600373148918152,"359":0.8331948518753052,"360":0.5955133438110352,"361":-0.37510016560554504,"362":0.5462781190872192,"363":-0.7823325395584106,"364":-0.39040422439575195,"365":-0.08181890845298767,"366":0.4657976031303406,"367":-0.5799536108970642,"368":-0.35410115122795105,"369":-0.35008060932159424,"370":-0.0018645902164280415,"371":1.2145310640335083,"372":0.8357088565826416,"373":-0.2929346263408661,"374":-0.9605419039726257,"375":0.4784313440322876,"376":-0.8426843881607056,"377":-0.5216012001037598,"378":-0.8317991495132446,"379":0.769749104976654,"380":-0.1388409584760666,"381":-0.4689843952655792,"382":-0.6339226961135864,"383":0.9070212841033936,"384":0.6844789981842041,"385":1.3558937311172485,"386":0.7128314971923828,"387":-0.8536394834518433,"388":-0.3253959119319916,"389":0.20018915832042694,"390":0.4379782974720001,"391":0.521870493888855,"392":-1.0822348594665527,"393":0.22325348854064941,"394":-0.6622002124786377,"395":-0.7122268080711365,"396":-0.4791857898235321,"397":0.3139101266860962,"398":-0.32489126920700073,"399":-0.20749638974666595,"400":-0.815371036529541,"401":0.41587215662002563,"402":0.6473569273948669,"403":0.3865874111652374,"404":-0.07964662462472916,"405":-1.124063491821289,"406":0.6996156573295593,"407":-0.15392430126667023,"408":0.5920330882072449,"409":-0.6232655644416809,"410":0.046817220747470856,"411":-0.33335405588150024,"412":-0.733196496963501,"413":0.16141675412654877,"414":1.1956579685211182,"415":0.7444207072257996,"416":2.056814193725586,"417":0.6439324617385864,"418":-0.6608216762542725,"419":-0.2754105031490326,"420":0.5962553024291992,"421":0.4229370355606079,"422":0.32833778858184814,"423":-0.8126484155654907,"424":0.39577433466911316,"425":-0.8262415528297424,"426":0.327791303396225,"427":0.43950343132019043,"428":0.6687602996826172,"429":-0.5791789889335632,"430":-0.41229718923568726,"431":-0.4488523304462433,"432":0.5087704062461853,"433":-0.2341875433921814,"434":0.6225376725196838,"435":0.3185066282749176,"436":-0.9471108317375183,"437":0.6085143089294434,"438":-0.33620670437812805,"439":0.25031810998916626,"440":-0.8165202736854553,"441":0.2797057032585144,"442":-0.23723311722278595,"443":-0.719294011592865,"444":0.05179005116224289,"445":1.0906709432601929,"446":0.6136820316314697,"447":1.7249912023544312,"448":0.6368618011474609,"449":-0.8712434768676758,"450":-0.317248672246933,"451":0.3715786933898926,"452":0.42072516679763794,"453":0.24661040306091309,"454":-1.8875237703323364,"455":-0.18765585124492645,"456":-0.6375219821929932,"457":-0.23159180581569672,"458":-0.20717960596084595,"459":1.092896819114685,"460":-0.3710893988609314,"461":-0.48364412784576416,"462":-0.8772987127304077,"463":0.5376879572868347,"464":-0.6008101105690002,"465":-0.3960096538066864,"466":-0.3970607817173004,"467":0.7234361171722412,"468":-0.42378464341163635,"469":0.39337801933288574,"470":0.37265974283218384,"471":0.5892167091369629,"472":-0.718996524810791,"473":0.36447790265083313,"474":-0.9716978073120117,"475":0.4989243149757385,"476":-0.8665553331375122,"477":0.05823585018515587,"478":-1.4952366352081299,"479":0.03550802543759346,"480":0.22817210853099823,"481":0.1779264360666275,"482":-0.1412133276462555,"483":-0.07146024703979492,"484":-0.08844310790300369,"485":0.8066034317016602,"486":0.3686705529689789,"487":0.3483959138393402,"488":0.6082164645195007,"489":1.3537343740463257,"490":-0.1477014422416687,"491":-0.025550635531544685,"492":0.0530565120279789,"493":0.8013349175453186,"494":-0.7394128441810608,"495":0.2738504409790039,"496":-0.8591238260269165,"497":0.6847155094146729,"498":0.04008755087852478,"499":-0.3605514168739319,"500":0.6234018206596375,"501":0.9197254776954651,"502":0.5176385045051575,"503":-0.7779740691184998,"504":0.19942139089107513,"505":0.5416471362113953,"506":0.942976176738739,"507":-0.14926621317863464,"508":-0.49468064308166504,"509":0.04425188899040222,"510":-0.7905925512313843,"511":0.4758060574531555,"512":0.4699958562850952,"513":-0.5156623721122742,"514":-1.0324088335037231,"515":-0.7989981174468994,"516":0.18895098567008972,"517":-0.5997939705848694,"518":0.5319937467575073,"519":0.5603616833686829,"520":0.6118923425674438,"521":0.09308460354804993,"522":0.949997067451477,"523":0.21978381276130676,"524":0.8030486106872559,"525":-0.3257473111152649,"526":-0.6980411410331726,"527":-0.8152151107788086,"528":0.8413944840431213,"529":-0.017444496974349022,"530":-0.552134096622467,"531":0.7317387461662292,"532":0.9613340497016907,"533":0.6570860743522644,"534":-0.6353896856307983,"535":0.5866246819496155,"536":-0.16195134818553925,"537":0.8659159541130066,"538":0.083875373005867,"539":-0.7720729112625122,"540":0.5548033714294434,"541":-0.7259004712104797,"542":0.636198103427887,"543":0.5544674396514893,"544":-0.6827938556671143,"545":-0.9673691391944885,"546":-0.9488240480422974,"547":0.39107513427734375,"548":-0.6942427158355713,"549":0.8022302985191345,"550":0.37702375650405884,"551":0.20588165521621704,"552":-0.49993565678596497,"553":0.9246922135353088,"554":0.840009868144989,"555":0.7924724221229553,"556":-0.40568214654922485,"557":-0.6258102059364319,"558":0.5906041860580444,"559":-0.46514230966567993,"560":-0.5129956603050232,"561":0.38038569688796997,"562":-0.6530232429504395,"563":-0.31149822473526,"564":-0.6409493684768677,"565":0.41043317317962646,"566":-0.43418392539024353,"567":-0.616859495639801,"568":-0.45169463753700256,"569":0.48731163144111633,"570":0.6726313829421997,"571":1.0430976152420044,"572":0.6983534693717957,"573":-0.6113325953483582,"574":-0.3876416087150574,"575":0.26561442017555237,"576":0.42790964245796204,"577":0.7388061881065369,"578":-0.486171692609787,"579":0.3725390136241913,"580":-0.511002242565155,"581":-0.7146070599555969,"582":-0.3943752646446228,"583":-0.5784804224967957,"584":-0.30398815870285034,"585":-0.21569178998470306,"586":-0.5566694140434265,"587":0.3463849425315857,"588":0.5626716613769531,"589":0.1949004828929901,"590":-0.03777645155787468,"591":1.0454283952713013,"592":0.20565514266490936,"593":-0.28554007411003113,"594":0.13395653665065765,"595":-0.504524827003479,"596":-0.22706875205039978,"597":-0.03017100691795349,"598":-0.08989071100950241,"599":-0.05925804004073143,"600":-1.2100228071212769,"601":0.25903740525245667,"602":-0.6816887259483337,"603":0.6300250887870789,"604":-0.4275614619255066,"605":-0.2537056803703308,"606":0.16551056504249573,"607":0.4578147828578949,"608":0.19536252319812775,"609":0.013698730617761612,"610":-0.011533266864717007,"611":-0.12089326232671738,"612":-0.024757586419582367,"613":0.6944566369056702,"614":1.0216281414031982,"615":-0.3014320731163025,"616":-0.3130759000778198,"617":-0.3586510717868805,"618":-0.44947725534439087,"619":-0.35823291540145874}},"inputHidden":{"rows":20,"columns":20,"weights":{"0":-0.07019145041704178,"1":-0.6643774509429932,"2":-0.07942894101142883,"3":-0.17245900630950928,"4":0.7053454518318176,"5":-0.43676868081092834,"6":0.3242914080619812,"7":-0.7993813157081604,"8":-0.029025310650467873,"9":0.16864296793937683,"10":0.5342534780502319,"11":-0.6423105001449585,"12":-0.28452935814857483,"13":-0.1057359129190445,"14":0.3932203948497772,"15":-0.637186586856842,"16":0.1529395431280136,"17":-0.09486311674118042,"18":0.5879558324813843,"19":0.6602903008460999,"20":-0.4824705719947815,"21":-1.283490538597107,"22":-0.716366708278656,"23":-0.40508297085762024,"24":1.0977762937545776,"25":-1.105402946472168,"26":0.7032457590103149,"27":-0.8596283197402954,"28":-0.7925593256950378,"29":0.9747312664985657,"30":0.4333992302417755,"31":-0.5260946154594421,"32":-0.9848225712776184,"33":0.957565426826477,"34":0.5813053250312805,"35":-1.2380404472351074,"36":0.7042308449745178,"37":-0.6472395062446594,"38":0.8000293374061584,"39":1.223026156425476,"40":0.27954235672950745,"41":-0.138511061668396,"42":-0.005115783307701349,"43":0.47795945405960083,"44":0.4361010789871216,"45":0.2482300102710724,"46":-0.24905937910079956,"47":0.2365356683731079,"48":0.3609430491924286,"49":-0.5384559631347656,"50":0.0530768558382988,"51":0.42245158553123474,"52":-0.4125441908836365,"53":-0.614376962184906,"54":0.23855432868003845,"55":-0.104367196559906,"56":-0.2144429087638855,"57":0.30527788400650024,"58":-0.47798874974250793,"59":0.6516737341880798,"60":-1.2431509494781494,"61":-0.007434843573719263,"62":-0.8237030506134033,"63":-1.0161240100860596,"64":0.4237811863422394,"65":-0.9247866272926331,"66":1.0568798780441284,"67":-0.4026021361351013,"68":-0.7560026049613953,"69":0.18626977503299713,"70":0.3511255979537964,"71":-0.48711150884628296,"72":-0.7507503628730774,"73":0.5300419330596924,"74":0.7359956502914429,"75":0.6611942648887634,"76":1.2474724054336548,"77":-1.0917302370071411,"78":0.47447025775909424,"79":0.0881723165512085,"80":-0.5748337507247925,"81":-0.29612261056900024,"82":-0.5557152628898621,"83":-0.07097853720188141,"84":0.14629589021205902,"85":-0.5857696533203125,"86":0.5613551735877991,"87":-0.29006391763687134,"88":-0.443904310464859,"89":0.3260398507118225,"90":0.398140549659729,"91":-0.37287217378616333,"92":0.01388905942440033,"93":0.3638163208961487,"94":0.025641044601798058,"95":-0.3156103491783142,"96":0.6141231060028076,"97":-0.5182139873504639,"98":0.2750147879123688,"99":0.22553503513336182,"100":0.1877836436033249,"101":-0.07827329635620117,"102":-0.27679282426834106,"103":0.17229698598384857,"104":-0.0630698874592781,"105":-0.29381033778190613,"106":-0.011560612358152866,"107":0.456608384847641,"108":-0.0004841771151404828,"109":-0.10885083675384521,"110":0.37642794847488403,"111":0.896527111530304,"112":-0.23032934963703156,"113":-0.37130382657051086,"114":0.12323283404111862,"115":-0.896152675151825,"116":0.25969433784484863,"117":0.23557153344154358,"118":0.16644474864006042,"119":0.26760581135749817,"120":-0.682182252407074,"121":-0.5705478191375732,"122":-0.6947910785675049,"123":-0.33896926045417786,"124":0.9976089000701904,"125":-0.9748398065567017,"126":0.6523958444595337,"127":-0.22689607739448547,"128":-0.9313107132911682,"129":1.0841041803359985,"130":0.7514004111289978,"131":0.060844894498586655,"132":-0.398042231798172,"133":0.4428453743457794,"134":0.795323371887207,"135":-1.1367089748382568,"136":1.0302907228469849,"137":-0.7830551266670227,"138":0.4344865083694458,"139":0.9797627925872803,"140":-0.6094790697097778,"141":0.3640623390674591,"142":-0.5737770199775696,"143":-0.29528215527534485,"144":-0.02303178235888481,"145":-0.778609037399292,"146":0.674260675907135,"147":0.15157686173915863,"148":-0.2508194148540497,"149":0.11944733560085297,"150":0.029012834653258324,"151":0.14922508597373962,"152":0.5656271576881409,"153":-0.059486523270606995,"154":-0.6373581290245056,"155":0.6776108145713806,"156":0.7834200263023376,"157":-0.25776684284210205,"158":-0.3473038673400879,"159":-0.26074308156967163,"160":0.2484850436449051,"161":-0.28610044717788696,"162":0.5559661984443665,"163":0.19414915144443512,"164":-0.279315710067749,"165":0.5537468791007996,"166":-0.3551081717014313,"167":0.1554945707321167,"168":0.3434789776802063,"169":-0.4241795241832733,"170":-0.4580349922180176,"171":0.27720025181770325,"172":0.2742493450641632,"173":-0.20200499892234802,"174":-0.30833297967910767,"175":0.5326002240180969,"176":-0.34693363308906555,"177":0.13186566531658173,"178":-0.24281033873558044,"179":-0.4278247058391571,"180":0.5700884461402893,"181":0.9676111936569214,"182":0.9239656925201416,"183":0.2872636616230011,"184":-0.1296265423297882,"185":0.7545828223228455,"186":-0.5887047648429871,"187":0.7240250706672668,"188":0.6765336394309998,"189":-0.8014349341392517,"190":-0.036078568547964096,"191":0.618228554725647,"192":0.030079718679189682,"193":-1.0438631772994995,"194":-0.1994648426771164,"195":-0.891067624092102,"196":-0.8184955716133118,"197":0.724197268486023,"198":-0.15253786742687225,"199":0.020242521539330482,"200":0.43897441029548645,"201":-0.1431346833705902,"202":0.3571411371231079,"203":0.49624010920524597,"204":0.059270184487104416,"205":0.3612537980079651,"206":-0.6014575958251953,"207":0.3565056622028351,"208":0.472835510969162,"209":-0.5426430106163025,"210":0.06411720812320709,"211":0.36825287342071533,"212":0.26817935705184937,"213":-0.4402012825012207,"214":-0.3756762444972992,"215":0.6538172364234924,"216":-0.4964376389980316,"217":0.5500048995018005,"218":-0.2594357430934906,"219":-0.3465368449687958,"220":-0.12550975382328033,"221":0.18431268632411957,"222":-0.10179417580366135,"223":0.08395984023809433,"224":0.09093820303678513,"225":-0.04507598280906677,"226":0.28385940194129944,"227":-0.17042389512062073,"228":-0.10511535406112671,"229":0.11486099660396576,"230":-0.18883149325847626,"231":-0.1921113133430481,"232":-0.3237553834915161,"233":0.4078325927257538,"234":0.27392828464508057,"235":0.59651780128479,"236":0.20431506633758545,"237":-0.1589110940694809,"238":0.18942858278751373,"239":0.48180100321769714,"240":-0.3997568190097809,"241":-0.9218798279762268,"242":-0.12180755287408829,"243":-0.04663417860865593,"244":0.1101098507642746,"245":-0.3744339048862457,"246":0.25115954875946045,"247":0.1570737063884735,"248":-0.27363187074661255,"249":0.36066389083862305,"250":0.24209298193454742,"251":0.028851324692368507,"252":-0.1080142930150032,"253":0.22472195327281952,"254":0.44773343205451965,"255":-0.2389877736568451,"256":0.3839835524559021,"257":-0.2875140309333801,"258":-0.22177475690841675,"259":0.12411826103925705,"260":-0.31223252415657043,"261":0.5822497010231018,"262":-0.229059100151062,"263":-0.13975322246551514,"264":0.3929758071899414,"265":0.055288076400756836,"266":0.35875204205513,"267":-0.1453486531972885,"268":-0.2765677571296692,"269":0.2197064608335495,"270":0.03537096083164215,"271":-0.278984934091568,"272":0.06111787632107735,"273":0.34011781215667725,"274":0.14120149612426758,"275":0.961485743522644,"276":0.22941021621227264,"277":-0.2986445724964142,"278":0.22066381573677063,"279":-0.7444125413894653,"280":-0.43359801173210144,"281":0.7700654864311218,"282":-0.3378024101257324,"283":-0.002964082406833768,"284":0.3406963646411896,"285":-0.5347421169281006,"286":0.40037059783935547,"287":0.22347790002822876,"288":-0.44216760993003845,"289":0.44632381200790405,"290":0.6860671639442444,"291":-0.08546597510576248,"292":0.1786031424999237,"293":-0.09619491547346115,"294":-0.004744864068925381,"295":-1.3326501846313477,"296":0.37220317125320435,"297":-0.5536466836929321,"298":-0.22418400645256042,"299":-0.29048818349838257,"300":0.20180435478687286,"301":0.007785625755786896,"302":-0.23502938449382782,"303":0.3008520007133484,"304":-1.724637508392334,"305":-0.30693987011909485,"306":-0.2552684247493744,"307":0.6973397135734558,"308":-0.3436727821826935,"309":0.36304885149002075,"310":-0.41607198119163513,"311":1.2585188150405884,"312":1.4989862442016602,"313":-1.3299787044525146,"314":-0.36409932374954224,"315":-0.35579714179039,"316":0.3141935169696808,"317":0.5096789598464966,"318":-0.9623925089836121,"319":-1.1950957775115967,"320":-0.019138477742671967,"321":0.2664382755756378,"322":-0.3271665871143341,"323":-0.2598017752170563,"324":0.4166799485683441,"325":-0.2708057165145874,"326":0.23317374289035797,"327":0.6744825839996338,"328":-0.1525389403104782,"329":-0.2546662986278534,"330":-0.07688988745212555,"331":1.0457361936569214,"332":0.20762541890144348,"333":-1.0727366209030151,"334":-0.2566016614437103,"335":-0.8368016481399536,"336":0.4487057626247406,"337":-0.00207878602668643,"338":0.05381912365555763,"339":0.2023393213748932,"340":0.3910873830318451,"341":-0.7984243631362915,"342":-0.16652321815490723,"343":-0.24582651257514954,"344":0.8097757697105408,"345":-0.16110552847385406,"346":0.3640904724597931,"347":-0.5447472333908081,"348":-0.1204071193933487,"349":0.05530989542603493,"350":0.07115776836872101,"351":-0.6266112327575684,"352":-0.26041972637176514,"353":-0.1623598337173462,"354":0.3332822918891907,"355":-0.228406623005867,"356":0.2629077136516571,"357":-0.31221261620521545,"358":0.5843724608421326,"359":0.5455325245857239,"360":-0.36630794405937195,"361":0.07238680124282837,"362":-0.15857766568660736,"363":-0.22070132195949554,"364":0.31533172726631165,"365":-0.4138919711112976,"366":0.2279215306043625,"367":-0.16814477741718292,"368":-0.4053177833557129,"369":0.38969308137893677,"370":0.19305261969566345,"371":-0.1326281875371933,"372":0.15133847296237946,"373":0.1873287409543991,"374":-0.10617659986019135,"375":0.31435632705688477,"376":0.3675019145011902,"377":-0.3726893663406372,"378":0.14203603565692902,"379":0.45253223180770874,"380":-0.6662408709526062,"381":-0.17034919559955597,"382":-0.7001583576202393,"383":-0.48873353004455566,"384":0.6301513910293579,"385":-0.4160870909690857,"386":0.5532867908477783,"387":-0.612848699092865,"388":-0.680454671382904,"389":0.5661112070083618,"390":0.8280291557312012,"391":-0.4771527647972107,"392":-0.3081609010696411,"393":0.3780224323272705,"394":-0.025955304503440857,"395":-1.5805020332336426,"396":0.6570414304733276,"397":-0.7351480722427368,"398":0.5301293134689331,"399":0.7970857620239258}},"inputBias":{"rows":20,"columns":1,"weights":{"0":-0.09586506336927414,"1":-0.8190843462944031,"2":-0.1684233844280243,"3":-0.03445607051253319,"4":-0.7186879515647888,"5":-0.3151833117008209,"6":-0.3765101432800293,"7":-1.0009839534759521,"8":-0.7889984846115112,"9":-0.40529873967170715,"10":-0.885877788066864,"11":-1.9640800952911377,"12":-0.47273167967796326,"13":-0.7726255059242249,"14":-0.49299147725105286,"15":-1.1393299102783203,"16":-0.23404893279075623,"17":-0.19995421171188354,"18":-1.2156944274902344,"19":-1.1377575397491455}},"forgetMatrix":{"rows":20,"columns":31,"weights":{"0":0.411041796207428,"1":0.09548785537481308,"2":-0.3391055166721344,"3":0.3207109272480011,"4":-0.4835890233516693,"5":-0.3748207688331604,"6":-0.7494738698005676,"7":0.252931147813797,"8":-0.4467965364456177,"9":-0.8946864604949951,"10":-0.3219633102416992,"11":0.5850843191146851,"12":0.5344470739364624,"13":0.44230806827545166,"14":0.8049482107162476,"15":-0.9646833539009094,"16":-0.4860396087169647,"17":0.3597245514392853,"18":0.8260329961776733,"19":0.6464953422546387,"20":-0.36580222845077515,"21":0.044693466275930405,"22":-0.3668367862701416,"23":-0.8660306930541992,"24":-1.1415889263153076,"25":-0.925742506980896,"26":-0.476981520652771,"27":-0.017823120579123497,"28":-0.7162855267524719,"29":0.431065171957016,"30":0.01049161609262228,"31":0.07974211126565933,"32":-0.711043655872345,"33":1.202085256576538,"34":0.35361629724502563,"35":0.007834326475858688,"36":0.21977496147155762,"37":-0.6454786658287048,"38":0.16327467560768127,"39":0.001507352339103818,"40":-0.6292797327041626,"41":0.236791729927063,"42":-0.6489067077636719,"43":0.7619194984436035,"44":-1.6370184421539307,"45":0.7854909300804138,"46":-1.0727711915969849,"47":-0.44144585728645325,"48":0.639523446559906,"49":0.3143481910228729,"50":0.4578215479850769,"51":0.4605567753314972,"52":0.524729311466217,"53":-0.34018394351005554,"54":0.10344022512435913,"55":0.0486893504858017,"56":-0.6452566385269165,"57":-0.29808229207992554,"58":-0.266986221075058,"59":-0.5825949311256409,"60":-0.20050407946109772,"61":0.012362314388155937,"62":0.44506970047950745,"63":-0.388679563999176,"64":-0.7109746932983398,"65":0.1597512811422348,"66":-0.19989708065986633,"67":-0.7515113949775696,"68":0.37471309304237366,"69":0.3475925624370575,"70":-0.494738906621933,"71":-0.5551084876060486,"72":-0.7836107611656189,"73":0.6539716720581055,"74":0.43447065353393555,"75":0.21683010458946228,"76":0.2627221643924713,"77":-0.023164546117186546,"78":-0.5569947361946106,"79":0.6233111023902893,"80":0.704276442527771,"81":0.3259262144565582,"82":-0.40720894932746887,"83":0.0015176195884123445,"84":-0.14347487688064575,"85":-0.5177794694900513,"86":-1.0753400325775146,"87":-0.7995015978813171,"88":-0.9153091907501221,"89":-0.8249608874320984,"90":-0.26049619913101196,"91":0.6615368723869324,"92":0.4569880962371826,"93":0.9238752126693726,"94":-0.2146911472082138,"95":0.5535756349563599,"96":0.2517222464084625,"97":-0.7117407321929932,"98":-0.7793656587600708,"99":-1.339586853981018,"100":0.7492634057998657,"101":-0.16116538643836975,"102":-0.7423513531684875,"103":-0.280231237411499,"104":-0.600152313709259,"105":-0.007486159447580576,"106":-0.6754301190376282,"107":1.1856688261032104,"108":-1.0161746740341187,"109":-0.3935750722885132,"110":0.08907151967287064,"111":0.8745236992835999,"112":1.107791781425476,"113":0.1512095034122467,"114":0.2576404809951782,"115":-0.19817428290843964,"116":-0.8236333131790161,"117":-0.17397306859493256,"118":-0.7128151655197144,"119":-0.8509746789932251,"120":-0.004966309759765863,"121":-1.2353638410568237,"122":0.24996992945671082,"123":0.45391249656677246,"124":0.45434173941612244,"125":-0.7176563143730164,"126":0.5870581269264221,"127":0.7021535634994507,"128":-0.50092613697052,"129":-0.46947598457336426,"130":-0.7096745371818542,"131":0.5835741758346558,"132":-0.5339862108230591,"133":0.17409947514533997,"134":-0.19910664856433868,"135":-0.06766263395547867,"136":0.8124998211860657,"137":-0.9645944833755493,"138":0.8768573999404907,"139":-0.9476045370101929,"140":-0.6590619087219238,"141":0.838506817817688,"142":0.7329904437065125,"143":0.7318091988563538,"144":-0.04604916647076607,"145":0.6882850527763367,"146":-0.6109059453010559,"147":-0.07430172711610794,"148":-0.36875882744789124,"149":-0.2143665999174118,"150":-0.7887799143791199,"151":-0.7594393491744995,"152":-0.6445730924606323,"153":-0.04207988083362579,"154":0.1293388307094574,"155":0.6695291996002197,"156":-0.209284245967865,"157":0.14155150949954987,"158":0.7762662768363953,"159":-0.27112796902656555,"160":-0.5934025049209595,"161":-0.7882677316665649,"162":0.3915565311908722,"163":-0.6121885180473328,"164":-0.4682236909866333,"165":-0.572547197341919,"166":0.08761771768331528,"167":1.131059169769287,"168":0.07626794278621674,"169":1.441226840019226,"170":-1.0875307321548462,"171":-0.8275497555732727,"172":0.5096495747566223,"173":1.1981159448623657,"174":0.8676865696907043,"175":0.14068691432476044,"176":0.6701324582099915,"177":-1.1242125034332275,"178":-0.20946523547172546,"179":-0.2642267048358917,"180":-1.2577184438705444,"181":-0.7417755126953125,"182":0.2964566946029663,"183":-1.0136137008666992,"184":0.3374831974506378,"185":0.5969622731208801,"186":1.1727286577224731,"187":-1.1806377172470093,"188":0.2155209332704544,"189":0.4680306315422058,"190":-0.7876787185668945,"191":-1.2125248908996582,"192":-0.5431638360023499,"193":1.0084699392318726,"194":-0.2728923559188843,"195":-0.6206276416778564,"196":-0.9600157141685486,"197":-0.21683847904205322,"198":0.7507607340812683,"199":-0.48726433515548706,"200":0.9805541634559631,"201":-0.7818136215209961,"202":-0.8678814172744751,"203":1.1799824237823486,"204":1.6733535528182983,"205":0.9553894996643066,"206":0.030687492340803146,"207":0.6649547815322876,"208":-0.7014169096946716,"209":-0.5528534054756165,"210":-0.18146349489688873,"211":-0.4786556363105774,"212":-1.4383164644241333,"213":-0.48076948523521423,"214":-0.6415892243385315,"215":-0.023188414052128792,"216":0.7007625699043274,"217":0.11662215739488602,"218":-0.9019507169723511,"219":0.3383259177207947,"220":0.7649194002151489,"221":0.01746990531682968,"222":-0.3149823844432831,"223":-0.48612290620803833,"224":0.18245796859264374,"225":0.10472157597541809,"226":0.015784092247486115,"227":-0.13449817895889282,"228":-0.24083471298217773,"229":0.7787771224975586,"230":-1.0201858282089233,"231":0.9036909937858582,"232":-1.0526924133300781,"233":-0.5548368096351624,"234":0.4355350434780121,"235":0.446549654006958,"236":0.595355749130249,"237":0.30439603328704834,"238":0.6512343883514404,"239":-0.651732325553894,"240":0.03172038495540619,"241":-0.16032975912094116,"242":0.027468765154480934,"243":-0.18306121230125427,"244":-0.2750193178653717,"245":-0.34058278799057007,"246":-0.1081431657075882,"247":-0.4123649001121521,"248":0.5553101897239685,"249":0.6391519904136658,"250":-0.39965781569480896,"251":-0.6307039856910706,"252":-0.44422462582588196,"253":-0.5567152500152588,"254":0.7373439073562622,"255":0.5445775389671326,"256":0.370374470949173,"257":-0.6281789541244507,"258":-0.9397751092910767,"259":0.39287033677101135,"260":-0.479452520608902,"261":0.053047794848680496,"262":-0.8788416981697083,"263":0.8344267010688782,"264":0.26990941166877747,"265":-0.05947894603013992,"266":-0.06557311117649078,"267":-0.3414396047592163,"268":0.962169885635376,"269":-1.1201117038726807,"270":0.5793659687042236,"271":-0.6250320672988892,"272":-0.5539067983627319,"273":-0.49933359026908875,"274":-0.026464290916919708,"275":-0.29077598452568054,"276":0.7178530693054199,"277":-0.045694317668676376,"278":0.4754877984523773,"279":0.20278412103652954,"280":0.6186053156852722,"281":-0.38696226477622986,"282":-0.3880438208580017,"283":-0.0418190136551857,"284":-0.6601575613021851,"285":0.6882377862930298,"286":0.7151427865028381,"287":-0.3453783690929413,"288":-0.6924489736557007,"289":-0.595198392868042,"290":0.3753897547721863,"291":-0.02883111871778965,"292":0.1227894127368927,"293":0.4915231764316559,"294":0.3761337697505951,"295":-0.3799867630004883,"296":0.695832371711731,"297":0.37296590209007263,"298":0.4887911379337311,"299":0.06988848000764847,"300":-0.0970085859298706,"301":-0.04240964725613594,"302":-0.32176685333251953,"303":-0.9738264679908752,"304":-1.2755255699157715,"305":-0.8438893556594849,"306":-0.1075768992304802,"307":-0.44629472494125366,"308":-0.09055724740028381,"309":-0.13579025864601135,"310":-1.0300198793411255,"311":0.6058293581008911,"312":-0.04526815563440323,"313":-0.44514378905296326,"314":0.4523804187774658,"315":0.9959813952445984,"316":0.6407206058502197,"317":-0.791405200958252,"318":0.13743561506271362,"319":0.2434663325548172,"320":0.17259441316127777,"321":0.10947335511445999,"322":-0.9288018941879272,"323":0.9611884951591492,"324":-0.951818585395813,"325":1.303276538848877,"326":0.562725841999054,"327":-0.9294762015342712,"328":-0.6352177262306213,"329":-1.0511361360549927,"330":-0.1652311533689499,"331":-0.015092797577381134,"332":0.4437209665775299,"333":0.6724347472190857,"334":1.1866487264633179,"335":0.8038956522941589,"336":0.6039240956306458,"337":0.8704431056976318,"338":0.5234736800193787,"339":-0.4093869626522064,"340":-0.10861537605524063,"341":-0.16905294358730316,"342":0.5565347075462341,"343":0.5310359001159668,"344":-0.6600810289382935,"345":0.25003480911254883,"346":1.07305908203125,"347":-0.19169482588768005,"348":-0.837068498134613,"349":1.1954455375671387,"350":-0.6335784196853638,"351":0.9328529238700867,"352":-0.4958595037460327,"353":-0.45141053199768066,"354":-0.7614396214485168,"355":-0.23239322006702423,"356":-0.5649940371513367,"357":1.192609190940857,"358":-1.0318342447280884,"359":-1.1541597843170166,"360":-0.2735700011253357,"361":0.45330092310905457,"362":-1.0906178951263428,"363":0.774692714214325,"364":-0.23473747074604034,"365":-0.2804589867591858,"366":-0.2335485965013504,"367":1.3435401916503906,"368":0.015566634014248848,"369":0.492870569229126,"370":0.005031028762459755,"371":-0.9602465629577637,"372":0.16584229469299316,"373":-0.6167388558387756,"374":1.0726126432418823,"375":0.7566508650779724,"376":-0.6275744438171387,"377":-0.3887791037559509,"378":-1.256325602531433,"379":0.7609075903892517,"380":-0.7769759893417358,"381":0.2273591160774231,"382":-0.31856346130371094,"383":-1.0100797414779663,"384":0.6155863404273987,"385":-0.4882628321647644,"386":1.055025577545166,"387":-0.801124095916748,"388":-0.761448323726654,"389":0.5464503765106201,"390":1.1304911375045776,"391":1.0106993913650513,"392":0.21475759148597717,"393":0.7408962249755859,"394":-0.826055109500885,"395":-0.11192579567432404,"396":-0.09658456593751907,"397":-0.15246543288230896,"398":-0.9897962808609009,"399":-0.1990097165107727,"400":-1.2317290306091309,"401":-0.09841057658195496,"402":0.19601088762283325,"403":0.643669068813324,"404":0.5442573428153992,"405":2.2299578189849854,"406":0.22832374274730682,"407":-1.4697085618972778,"408":0.34967753291130066,"409":-0.6099821329116821,"410":-0.27266189455986023,"411":-0.26074928045272827,"412":-0.6676071882247925,"413":1.2052028179168701,"414":-1.5792460441589355,"415":0.2402847707271576,"416":-1.3806852102279663,"417":0.7935242056846619,"418":-0.5464682579040527,"419":-0.31729915738105774,"420":0.044092148542404175,"421":0.44173723459243774,"422":1.354313850402832,"423":0.5186900496482849,"424":0.22079187631607056,"425":-0.27356335520744324,"426":-0.7880586981773376,"427":-1.128369927406311,"428":-0.7044271230697632,"429":-0.37295857071876526,"430":0.03319033235311508,"431":-0.563337504863739,"432":-0.24973174929618835,"433":-0.7340695858001709,"434":0.27421537041664124,"435":-0.4469262957572937,"436":1.1417065858840942,"437":0.562356173992157,"438":-0.5849380493164062,"439":-0.3963017165660858,"440":-1.0779649019241333,"441":0.6668545603752136,"442":-0.7576412558555603,"443":0.09986165165901184,"444":0.00439071049913764,"445":-1.1379947662353516,"446":0.5413474440574646,"447":-0.4156534969806671,"448":0.9867976307868958,"449":-0.6235547065734863,"450":-0.6548296213150024,"451":0.3885020911693573,"452":0.8565966486930847,"453":0.965779185295105,"454":0.3110048472881317,"455":0.5841009616851807,"456":-0.7477937340736389,"457":-0.26110711693763733,"458":-0.43492764234542847,"459":-0.06552603840827942,"460":-0.6401726603507996,"461":-0.3296208679676056,"462":-1.137728214263916,"463":-0.1428876370191574,"464":-0.23483015596866608,"465":-0.30122995376586914,"466":-0.616708517074585,"467":-0.20865216851234436,"468":0.2394615262746811,"469":1.4135546684265137,"470":0.4413372278213501,"471":0.5373222231864929,"472":-0.6635925769805908,"473":-0.30603596568107605,"474":0.22479833662509918,"475":0.27506589889526367,"476":-0.34064236283302307,"477":0.11929482966661453,"478":-0.4532969892024994,"479":-0.5917473435401917,"480":0.31022316217422485,"481":-0.17626745998859406,"482":0.441828191280365,"483":-0.1062905564904213,"484":-1.5713276863098145,"485":0.16390755772590637,"486":0.12382129579782486,"487":-0.09000302851200104,"488":1.299080729484558,"489":1.445491075515747,"490":0.9139859080314636,"491":-0.13680978119373322,"492":-0.8120872378349304,"493":0.6628384590148926,"494":-0.5854273438453674,"495":0.08628780394792557,"496":1.010465383529663,"497":-0.6270111799240112,"498":-0.0029210341162979603,"499":0.17509447038173676,"500":-0.45289504528045654,"501":-0.6914929151535034,"502":-0.05777731165289879,"503":0.4787745177745819,"504":-0.07587451487779617,"505":-0.7447599172592163,"506":-0.8259887099266052,"507":-0.07522224634885788,"508":0.6558697819709778,"509":-0.3068433105945587,"510":1.1766256093978882,"511":-0.34902167320251465,"512":-0.7747960686683655,"513":1.0456753969192505,"514":1.6103484630584717,"515":0.6841220259666443,"516":-0.05735313147306442,"517":0.5826625823974609,"518":-0.6260440945625305,"519":-0.5147693157196045,"520":-0.33918046951293945,"521":-0.6424400210380554,"522":-1.7275564670562744,"523":-0.3192861080169678,"524":-0.7055144906044006,"525":0.20174826681613922,"526":0.6942101716995239,"527":0.6892864108085632,"528":0.0416099987924099,"529":-0.3799382746219635,"530":0.3462809920310974,"531":-0.7221262454986572,"532":-0.43307286500930786,"533":-1.1226155757904053,"534":0.5606049299240112,"535":-0.0715058296918869,"536":-1.2291862964630127,"537":-0.30152976512908936,"538":0.5792720913887024,"539":0.575514018535614,"540":0.7142303586006165,"541":1.304552435874939,"542":-1.5245853662490845,"543":-0.4161994457244873,"544":0.10525625199079514,"545":0.9165430665016174,"546":0.9061142206192017,"547":-0.4438633322715759,"548":0.4744892716407776,"549":-0.7474165558815002,"550":-0.8273782134056091,"551":-1.2083420753479004,"552":-1.2723273038864136,"553":-0.3793969452381134,"554":0.5676589012145996,"555":-1.0768953561782837,"556":0.582624077796936,"557":0.24306648969650269,"558":0.16351579129695892,"559":-0.7011086344718933,"560":0.35231271386146545,"561":0.5967162251472473,"562":-0.2366809844970703,"563":-0.09906898438930511,"564":-0.4904182255268097,"565":0.5107460021972656,"566":0.26015275716781616,"567":-0.09370555728673935,"568":0.017261885106563568,"569":-0.21829558908939362,"570":0.5043157339096069,"571":-0.7716224193572998,"572":0.8363417983055115,"573":-0.9274741411209106,"574":-0.5048621892929077,"575":0.3266572654247284,"576":0.27596500515937805,"577":0.8056206107139587,"578":0.06563621759414673,"579":0.4841890335083008,"580":-0.5128371119499207,"581":-0.17481295764446259,"582":-0.3091062605381012,"583":-0.16959083080291748,"584":-0.21265040338039398,"585":-0.2907399833202362,"586":-0.704193115234375,"587":0.3040003776550293,"588":-0.27658239006996155,"589":0.4892933964729309,"590":-0.7975143194198608,"591":0.4427949786186218,"592":0.7788894176483154,"593":-0.3824993669986725,"594":-0.6237697005271912,"595":-0.7838975191116333,"596":0.7467706203460693,"597":-0.735166609287262,"598":-0.3198324739933014,"599":-0.2564835250377655,"600":-0.2270956039428711,"601":0.6499258875846863,"602":-0.44620686769485474,"603":0.8882742524147034,"604":-0.9115252494812012,"605":-0.6919492483139038,"606":0.6264886856079102,"607":0.7370160222053528,"608":0.6815933585166931,"609":-0.04817020893096924,"610":0.8377329707145691,"611":-0.7552198767662048,"612":-0.22672438621520996,"613":-0.6962394118309021,"614":-0.1155819445848465,"615":-0.9197872877120972,"616":-0.5477450489997864,"617":-0.8484457731246948,"618":0.2838732600212097,"619":0.4459727108478546}},"forgetHidden":{"rows":20,"columns":20,"weights":{"0":0.5303809642791748,"1":0.027443546801805496,"2":0.41409850120544434,"3":0.4326300621032715,"4":-0.26113611459732056,"5":0.4611186981201172,"6":-0.34232422709465027,"7":0.32269835472106934,"8":0.518185555934906,"9":-0.5729855298995972,"10":-0.2888543903827667,"11":0.21843761205673218,"12":0.25641801953315735,"13":-0.5052760243415833,"14":-0.7482450604438782,"15":0.3814367949962616,"16":-0.5196371674537659,"17":0.5269543528556824,"18":-0.20169849693775177,"19":-0.2165074348449707,"20":-0.08862852305173874,"21":-0.32506683468818665,"22":-0.2571266293525696,"23":0.07331418246030807,"24":0.6743271946907043,"25":-0.43682143092155457,"26":0.4106975793838501,"27":-0.48632383346557617,"28":-0.3898007273674011,"29":0.2841675877571106,"30":0.4231727123260498,"31":-0.6021355986595154,"32":-0.4492766857147217,"33":0.6164957880973816,"34":0.38311490416526794,"35":-0.42897915840148926,"36":0.383159339427948,"37":-0.16380436718463898,"38":0.7543743848800659,"39":0.16686227917671204,"40":0.33817777037620544,"41":0.6737817525863647,"42":0.6231558322906494,"43":0.5373750925064087,"44":-0.3307342231273651,"45":0.3928622901439667,"46":-0.17942023277282715,"47":0.3772188425064087,"48":0.5667250752449036,"49":-0.446972131729126,"50":-0.4169232249259949,"51":0.49931851029396057,"52":0.9679652452468872,"53":-0.9466394782066345,"54":-1.1488628387451172,"55":0.4726327657699585,"56":-0.3832516074180603,"57":0.36429616808891296,"58":-0.3780856728553772,"59":-0.4043942391872406,"60":-0.17200835049152374,"61":-0.10880249738693237,"62":0.26061707735061646,"63":-0.2744499742984772,"64":-0.34851932525634766,"65":0.5126015543937683,"66":-0.08207490295171738,"67":0.23322460055351257,"68":-0.3344186544418335,"69":0.01751106232404709,"70":-0.24707835912704468,"71":0.32249122858047485,"72":0.40110188722610474,"73":-0.45273733139038086,"74":-0.5338099598884583,"75":-0.1931287795305252,"76":0.08300917595624924,"77":-0.3020508587360382,"78":-0.4340015649795532,"79":-0.1508617103099823,"80":-0.43413010239601135,"81":-0.4859853982925415,"82":-0.29420310258865356,"83":-0.49939262866973877,"84":-0.1899101287126541,"85":-0.44382867217063904,"86":0.44121652841567993,"87":-0.37657153606414795,"88":-0.42098885774612427,"89":0.4213325083255768,"90":0.4680061638355255,"91":-0.4769260883331299,"92":0.19905458390712738,"93":0.48555347323417664,"94":-0.045138198882341385,"95":-0.41561993956565857,"96":0.341957151889801,"97":-0.39554402232170105,"98":-0.10892490297555923,"99":-0.10638593882322311,"100":0.4269934296607971,"101":-0.24028533697128296,"102":0.33530697226524353,"103":0.510331392288208,"104":-0.37512633204460144,"105":0.14422394335269928,"106":-0.2521531879901886,"107":0.3724439740180969,"108":0.39233464002609253,"109":-0.5059852004051208,"110":-0.2880202531814575,"111":0.31464749574661255,"112":0.26707473397254944,"113":-0.34393176436424255,"114":-0.3400707244873047,"115":0.8650205135345459,"116":-0.29453229904174805,"117":0.2849888205528259,"118":-0.3556831181049347,"119":-0.4752468168735504,"120":0.45597273111343384,"121":-0.3018116354942322,"122":0.25784316658973694,"123":0.5521548390388489,"124":-0.36481258273124695,"125":0.44572365283966064,"126":-0.3541945219039917,"127":0.41855359077453613,"128":0.36969247460365295,"129":-0.31685999035835266,"130":0.39106881618499756,"131":0.34039634466171265,"132":0.39016419649124146,"133":-0.22939997911453247,"134":-0.5807124376296997,"135":-0.07704192399978638,"136":-0.41110530495643616,"137":0.30855533480644226,"138":-0.36666741967201233,"139":-0.17742237448692322,"140":-0.3614169955253601,"141":-0.019308684393763542,"142":-0.2888980805873871,"143":-0.3673734664916992,"144":0.4800727069377899,"145":-0.28177133202552795,"146":0.2612897455692291,"147":-0.47254037857055664,"148":-0.33706292510032654,"149":0.40804025530815125,"150":0.3068299889564514,"151":-0.5318331718444824,"152":-0.5765606760978699,"153":0.4643838405609131,"154":0.5133073329925537,"155":-0.3058352470397949,"156":0.26795241236686707,"157":-0.27594807744026184,"158":0.6103485822677612,"159":0.7149330377578735,"160":0.5511234402656555,"161":-0.39886146783828735,"162":0.7312577962875366,"163":0.5767488479614258,"164":-0.3143666684627533,"165":0.6545283794403076,"166":-0.6500272154808044,"167":0.3052349388599396,"168":0.7353051900863647,"169":-0.7494335174560547,"170":-0.751618504524231,"171":0.30776968598365784,"172":0.31798869371414185,"173":-0.3385918438434601,"174":-0.5168350338935852,"175":0.6996063590049744,"176":-0.7147825956344604,"177":0.6196404099464417,"178":-0.3589787185192108,"179":-0.1283232420682907,"180":0.6333215832710266,"181":0.1505989283323288,"182":0.7083629965782166,"183":0.5442601442337036,"184":-0.3288764953613281,"185":0.6085397005081177,"186":-0.5548706650733948,"187":0.19096684455871582,"188":0.7243984937667847,"189":-0.6773197650909424,"190":-0.5486665964126587,"191":0.35451480746269226,"192":0.5076325535774231,"193":-0.4797101318836212,"194":-0.5875608921051025,"195":0.9042935371398926,"196":-0.6549203395843506,"197":0.49084287881851196,"198":-0.2509787380695343,"199":-0.2076716274023056,"200":0.303489089012146,"201":0.012014125473797321,"202":0.41309595108032227,"203":0.03077564761042595,"204":-0.29494231939315796,"205":0.1239996999502182,"206":-0.3737543821334839,"207":0.34643813967704773,"208":0.06095696613192558,"209":-0.028359530493617058,"210":-0.27378687262535095,"211":0.3964887857437134,"212":0.44038674235343933,"213":-0.5864711999893188,"214":-0.8727031946182251,"215":0.013276277109980583,"216":-0.4028286337852478,"217":-0.023804429918527603,"218":-0.361333429813385,"219":-0.004812867380678654,"220":-0.25931599736213684,"221":0.10667585581541061,"222":-0.2451159954071045,"223":-0.5441596508026123,"224":0.5868608951568604,"225":-0.3436729311943054,"226":0.327501118183136,"227":-0.40352270007133484,"228":-0.4058930277824402,"229":0.29150789976119995,"230":0.3656851053237915,"231":-0.38216838240623474,"232":-0.35671526193618774,"233":0.16474701464176178,"234":0.3251509964466095,"235":-0.25542178750038147,"236":0.342672735452652,"237":-0.2412458062171936,"238":0.49287810921669006,"239":0.5396231412887573,"240":-0.45420899987220764,"241":-0.5522533059120178,"242":-0.3921675682067871,"243":-0.27609965205192566,"244":-0.3483036756515503,"245":-0.47510308027267456,"246":0.32640668749809265,"247":-0.06310009211301804,"248":-0.46870559453964233,"249":0.42384204268455505,"250":0.47904613614082336,"251":-0.4049060344696045,"252":0.4310140311717987,"253":0.4199012219905853,"254":-0.47559791803359985,"255":-0.4447177052497864,"256":0.36432456970214844,"257":-0.43538203835487366,"258":-0.29583775997161865,"259":-0.16360673308372498,"260":-0.3689000606536865,"261":0.18468067049980164,"262":-0.3711720108985901,"263":-0.24567708373069763,"264":0.23135553300380707,"265":-0.3584044575691223,"266":0.3489581346511841,"267":-0.14041078090667725,"268":-0.408151239156723,"269":0.324878454208374,"270":0.3743375539779663,"271":0.032519176602363586,"272":-0.24778977036476135,"273":0.18122807145118713,"274":-0.08628540486097336,"275":-0.4240279197692871,"276":0.3486061096191406,"277":-0.42419299483299255,"278":0.20027269423007965,"279":1.0103955268859863,"280":-0.30537381768226624,"281":-0.3206174373626709,"282":-0.4146239161491394,"283":-0.2657073438167572,"284":-0.22809675335884094,"285":-0.4275043308734894,"286":0.3288540840148926,"287":-0.36594727635383606,"288":-0.4480225741863251,"289":0.37307068705558777,"290":0.4000970125198364,"291":-0.4284191429615021,"292":0.31638410687446594,"293":0.45684152841567993,"294":-0.25206729769706726,"295":-0.4945020079612732,"296":0.46617117524147034,"297":-0.34756332635879517,"298":0.1793522983789444,"299":-0.20451094210147858,"300":0.34918636083602905,"301":-0.5125129818916321,"302":0.1799619346857071,"303":0.4478537440299988,"304":-0.2776581943035126,"305":0.583079993724823,"306":-0.6713602542877197,"307":0.32454994320869446,"308":0.49899882078170776,"309":-0.284579336643219,"310":-0.9840066432952881,"311":0.2234763652086258,"312":0.5035881400108337,"313":-0.4748987853527069,"314":-0.5386437773704529,"315":-0.21209843456745148,"316":-0.5147655010223389,"317":0.8272130489349365,"318":-0.36064109206199646,"319":0.45472049713134766,"320":0.4290839433670044,"321":0.03746483102440834,"322":0.32591795921325684,"323":0.5817698240280151,"324":-0.2784320116043091,"325":0.36489757895469666,"326":-0.45934873819351196,"327":0.35089120268821716,"328":0.49124741554260254,"329":-0.45766547322273254,"330":0.1364595890045166,"331":0.3002026379108429,"332":0.40324530005455017,"333":-0.3484717607498169,"334":-0.7123514413833618,"335":0.20648665726184845,"336":-0.46210041642189026,"337":0.4952585995197296,"338":-0.27399125695228577,"339":-0.16230708360671997,"340":0.25448399782180786,"341":-0.29733628034591675,"342":0.07155878841876984,"343":0.35831230878829956,"344":-0.2706928551197052,"345":0.16762644052505493,"346":-0.22362156212329865,"347":0.2372100055217743,"348":0.17206893861293793,"349":-0.2342010736465454,"350":-0.2010340541601181,"351":0.37013354897499084,"352":0.17789451777935028,"353":-0.2901756465435028,"354":-0.23033349215984344,"355":0.22210094332695007,"356":-0.12325198203325272,"357":0.16956371068954468,"358":-0.31836506724357605,"359":-0.23804107308387756,"360":-0.37200939655303955,"361":-0.09951071441173553,"362":-0.38552841544151306,"363":-0.3920656740665436,"364":0.5838088989257812,"365":-0.35297635197639465,"366":0.3946148455142975,"367":-0.5125768780708313,"368":-0.42779040336608887,"369":0.340333491563797,"370":0.39566344022750854,"371":-0.4913635849952698,"372":-0.4343818128108978,"373":0.4289393424987793,"374":0.5006176233291626,"375":-0.42789506912231445,"376":0.30586573481559753,"377":-0.34798070788383484,"378":0.5016418695449829,"379":0.6246870160102844,"380":-0.2487088143825531,"381":-0.29724979400634766,"382":-0.18699507415294647,"383":-0.13971121609210968,"384":-0.29774338006973267,"385":-0.1473657190799713,"386":0.025125090032815933,"387":-0.41166627407073975,"388":-0.4495432674884796,"389":0.5532168745994568,"390":0.24751293659210205,"391":-0.5219520330429077,"392":0.1092810183763504,"393":0.6234560012817383,"394":-0.03143331781029701,"395":-0.36319372057914734,"396":0.07033733278512955,"397":-0.24472254514694214,"398":0.027499908581376076,"399":0.010757740586996078}},"forgetBias":{"rows":20,"columns":1,"weights":{"0":0,"1":0,"2":0,"3":0,"4":0,"5":0,"6":0,"7":0,"8":0,"9":0,"10":0,"11":0,"12":0,"13":0,"14":0,"15":0,"16":0,"17":0,"18":0,"19":0}},"outputMatrix":{"rows":20,"columns":31,"weights":{"0":-0.39154571294784546,"1":0.9690271019935608,"2":0.4167279005050659,"3":-1.0898157358169556,"4":0.46220633387565613,"5":0.679906964302063,"6":0.5079374313354492,"7":-0.9009981751441956,"8":1.0533162355422974,"9":-0.7448596358299255,"10":1.014294147491455,"11":-0.37276408076286316,"12":-1.1853697299957275,"13":0.19737660884857178,"14":-0.35930243134498596,"15":0.6386602520942688,"16":0.7450183629989624,"17":-0.9903208613395691,"18":-0.8823384046554565,"19":-0.26859042048454285,"20":0.6782774925231934,"21":-0.8882373571395874,"22":1.267514705657959,"23":-0.17598719894886017,"24":-0.32068654894828796,"25":-0.34775716066360474,"26":0.9994160532951355,"27":1.38833487033844,"28":0.3936346173286438,"29":0.31904035806655884,"30":-1.05222487449646,"31":0.6603760719299316,"32":-1.0414016246795654,"33":-0.7553941607475281,"34":1.202508807182312,"35":0.6202272176742554,"36":-0.583789050579071,"37":-0.865179181098938,"38":0.5613932609558105,"39":-0.8320325613021851,"40":0.1495494842529297,"41":-0.9154561758041382,"42":0.14946983754634857,"43":1.0684372186660767,"44":0.4547331631183624,"45":0.5721508860588074,"46":-0.9899685978889465,"47":-0.8268193602561951,"48":1.0946881771087646,"49":1.0430347919464111,"50":-0.4234254062175751,"51":-1.0618138313293457,"52":0.7541956901550293,"53":-1.1187156438827515,"54":0.6393101811408997,"55":0.5258537530899048,"56":0.15597820281982422,"57":-1.3940142393112183,"58":-1.1379821300506592,"59":-1.3113305568695068,"60":0.24068322777748108,"61":2.2164385318756104,"62":-0.6330273747444153,"63":0.8553930521011353,"64":0.01188232097774744,"65":-0.892905592918396,"66":0.36207035183906555,"67":0.8007709980010986,"68":0.5781516432762146,"69":-0.6875765323638916,"70":0.7760584354400635,"71":-0.3077625632286072,"72":0.8175968527793884,"73":-0.021429352462291718,"74":-1.1219820976257324,"75":1.331465482711792,"76":-0.8300732374191284,"77":0.7220438122749329,"78":0.7262001037597656,"79":-0.9725355505943298,"80":-0.9788126349449158,"81":-0.6066416501998901,"82":-0.1631830781698227,"83":-0.7080994844436646,"84":0.8992421627044678,"85":0.1768760085105896,"86":0.10447540879249573,"87":0.47815799713134766,"88":1.2512825727462769,"89":1.3719875812530518,"90":0.5081274509429932,"91":0.1809411197900772,"92":-1.1729702949523926,"93":-1.065104365348816,"94":-0.47157183289527893,"95":0.04654928296804428,"96":0.08901187777519226,"97":0.609388530254364,"98":1.0438112020492554,"99":0.24328888952732086,"100":-1.0418692827224731,"101":-0.15104448795318604,"102":0.21657659113407135,"103":1.0965802669525146,"104":0.14717723429203033,"105":0.3234332799911499,"106":0.7687494158744812,"107":-0.30257102847099304,"108":0.34157395362854004,"109":-0.3240492343902588,"110":0.1575065553188324,"111":0.3512391746044159,"112":-0.611550509929657,"113":-0.08888912200927734,"114":0.7566649913787842,"115":-0.18635773658752441,"116":1.0382462739944458,"117":1.7274916172027588,"118":-0.04252937063574791,"119":-0.27154290676116943,"120":-0.0861116573214531,"121":0.40741926431655884,"122":-0.7385550737380981,"123":0.37724190950393677,"124":0.7504584789276123,"125":-0.5941892862319946,"126":0.12056856602430344,"127":0.7494993805885315,"128":-0.3641960918903351,"129":-0.9562057852745056,"130":-0.6577878594398499,"131":0.7428340315818787,"132":-0.690115213394165,"133":0.6722574830055237,"134":-1.0608947277069092,"135":-0.3256407082080841,"136":0.6584948897361755,"137":0.08142031729221344,"138":0.5090890526771545,"139":-0.6484264135360718,"140":-0.4499581754207611,"141":0.6566733121871948,"142":0.6695494055747986,"143":0.40042153000831604,"144":0.04213797673583031,"145":0.42227548360824585,"146":-0.6879931092262268,"147":-0.386497437953949,"148":0.2554725110530853,"149":-0.19162125885486603,"150":-0.6742212176322937,"151":-0.830011785030365,"152":-0.5192490816116333,"153":0.1067512258887291,"154":1.0182467699050903,"155":0.14601510763168335,"156":0.48231732845306396,"157":1.573708415031433,"158":-0.3172661364078522,"159":0.0699077919125557,"160":0.755607008934021,"161":-0.08826187252998352,"162":-0.9025774598121643,"163":0.3455623686313629,"164":0.030155979096889496,"165":0.788462221622467,"166":-1.9090533256530762,"167":-0.18260902166366577,"168":-0.41069453954696655,"169":0.23686790466308594,"170":-0.01014069002121687,"171":0.24364645779132843,"172":-0.15153653919696808,"173":-0.27643075585365295,"174":-0.14660823345184326,"175":1.0850834846496582,"176":-0.4784962236881256,"177":0.4635976254940033,"178":0.36092767119407654,"179":1.161916971206665,"180":0.14253275096416473,"181":0.3097602427005768,"182":0.318181574344635,"183":0.09531687945127487,"184":-0.8745891451835632,"185":-0.9368282556533813,"186":-0.024661893025040627,"187":0.385906845331192,"188":1.1724882125854492,"189":-0.5911171436309814,"190":-0.17236123979091644,"191":0.3450542986392975,"192":0.1400844305753708,"193":-0.3517996668815613,"194":0.6103106141090393,"195":0.042374927550554276,"196":0.591530978679657,"197":-1.3874846696853638,"198":-0.5547707676887512,"199":-0.07394027709960938,"200":0.12524399161338806,"201":0.15429601073265076,"202":0.49601930379867554,"203":-0.5686227679252625,"204":-0.3648102581501007,"205":0.06523747742176056,"206":1.1634336709976196,"207":-0.38264432549476624,"208":0.5366936922073364,"209":-0.014093352481722832,"210":0.2746323347091675,"211":-0.6674255132675171,"212":0.5823503732681274,"213":0.8958195447921753,"214":0.24597783386707306,"215":-0.5701355934143066,"216":-0.3927062153816223,"217":0.6938163638114929,"218":-0.573090136051178,"219":0.3841569423675537,"220":0.6154154539108276,"221":-0.48895901441574097,"222":-0.26912274956703186,"223":-0.8820119500160217,"224":0.23076406121253967,"225":-0.5565528273582458,"226":0.2466799020767212,"227":-0.510522723197937,"228":-0.47775998711586,"229":0.5572677850723267,"230":-0.5797765254974365,"231":0.8738210201263428,"232":-0.8421598672866821,"233":-0.38415899872779846,"234":0.5020347237586975,"235":0.7029610872268677,"236":0.5211131572723389,"237":0.17340195178985596,"238":0.3871016800403595,"239":-0.5897417068481445,"240":-0.3911677896976471,"241":0.22332271933555603,"242":-0.40827804803848267,"243":-0.5734822154045105,"244":-0.4907226860523224,"245":-0.688653290271759,"246":0.2658684253692627,"247":0.7386484742164612,"248":-0.4917351007461548,"249":0.6170743703842163,"250":0.1257559061050415,"251":-0.2840704023838043,"252":0.7944384813308716,"253":1.0126081705093384,"254":0.2918667495250702,"255":-0.6784538626670837,"256":0.3312184512615204,"257":-0.2998078465461731,"258":1.115625023841858,"259":-0.06194651499390602,"260":-0.21502907574176788,"261":1.4010546207427979,"262":-0.4804269075393677,"263":0.24632619321346283,"264":0.30414941906929016,"265":-0.38633787631988525,"266":-0.541874885559082,"267":-0.7235336303710938,"268":-0.25436025857925415,"269":-0.413102924823761,"270":0.30589473247528076,"271":1.0223337411880493,"272":0.8385897278785706,"273":0.1924661248922348,"274":0.5162566304206848,"275":0.08823482692241669,"276":0.4113859236240387,"277":-0.567510187625885,"278":-0.9196053743362427,"279":-0.17522764205932617,"280":0.304475873708725,"281":-0.19624727964401245,"282":-0.3440527021884918,"283":0.3997795283794403,"284":0.7666775584220886,"285":0.4618856906890869,"286":-0.42947399616241455,"287":0.691562294960022,"288":-0.643557071685791,"289":0.4990381598472595,"290":0.091097891330719,"291":-0.3470577299594879,"292":0.33289456367492676,"293":-0.2940641939640045,"294":0.18511618673801422,"295":0.36404886841773987,"296":-0.10385695099830627,"297":-0.5016769766807556,"298":-0.42320066690444946,"299":-0.2064049392938614,"300":-0.3499048948287964,"301":0.4057190418243408,"302":0.3584039509296417,"303":0.5092633366584778,"304":0.08026909083127975,"305":0.2579098343849182,"306":-0.12521037459373474,"307":0.43132397532463074,"308":-0.23430873453617096,"309":-0.4204559624195099,"310":-0.36324313282966614,"311":1.0470836162567139,"312":-0.07234478741884232,"313":-0.2635025978088379,"314":0.6309316158294678,"315":0.9449712634086609,"316":0.08327534049749374,"317":-0.2652122378349304,"318":0.4456116855144501,"319":-0.4392516613006592,"320":0.7995250225067139,"321":-0.06915712356567383,"322":-0.39513328671455383,"323":0.7468008995056152,"324":-0.5787330865859985,"325":0.30131417512893677,"326":0.47561419010162354,"327":-0.5480757355690002,"328":-0.6629274487495422,"329":-0.9403996467590332,"330":-0.481353759765625,"331":-0.6990035772323608,"332":0.24288444221019745,"333":0.8119242191314697,"334":0.7620617151260376,"335":0.6093325018882751,"336":0.7037996053695679,"337":0.5331861972808838,"338":-0.011316118761897087,"339":-0.23647689819335938,"340":-1.3835411071777344,"341":0.2141667753458023,"342":-0.662604033946991,"343":-1.2370145320892334,"344":0.7365213632583618,"345":-0.8983250260353088,"346":-0.8138622045516968,"347":-0.6676936745643616,"348":0.8420590162277222,"349":-0.7568069696426392,"350":-0.5110003352165222,"351":-0.684137761592865,"352":1.1004624366760254,"353":0.8946728110313416,"354":1.1174187660217285,"355":0.471698522567749,"356":-0.3215487003326416,"357":-0.6930944919586182,"358":0.4561016261577606,"359":0.791824221611023,"360":0.6475932598114014,"361":-0.6305615901947021,"362":0.6843007802963257,"363":-0.8284753561019897,"364":-0.6965047121047974,"365":-0.37511155009269714,"366":0.08775906264781952,"367":-0.5155723094940186,"368":-0.30588454008102417,"369":-0.4625764489173889,"370":0.17887111008167267,"371":0.9463991522789001,"372":0.2364533543586731,"373":-0.9647014737129211,"374":-0.3846657872200012,"375":1.2185580730438232,"376":0.3057605028152466,"377":-0.3629520833492279,"378":-0.6459960341453552,"379":0.37265127897262573,"380":-0.931847870349884,"381":0.532122015953064,"382":-0.4505646824836731,"383":0.45456477999687195,"384":1.1572493314743042,"385":0.441445529460907,"386":0.6002641320228577,"387":-0.8007712960243225,"388":-0.8456172347068787,"389":0.938459575176239,"390":1.196776270866394,"391":-0.1713394671678543,"392":-0.4744619131088257,"393":0.8178267478942871,"394":-1.1840060949325562,"395":0.5891218781471252,"396":0.49340325593948364,"397":0.9186330437660217,"398":-1.2862359285354614,"399":-1.3815245628356934,"400":-0.556580662727356,"401":-0.3936605751514435,"402":1.1351979970932007,"403":0.46070584654808044,"404":0.0679149478673935,"405":-1.4933593273162842,"406":0.2542678415775299,"407":-0.7238162159919739,"408":-0.6266089677810669,"409":-0.12177050858736038,"410":0.8636949062347412,"411":-0.04848865047097206,"412":-1.3184906244277954,"413":-0.8367986679077148,"414":1.1849727630615234,"415":0.4655097424983978,"416":1.4840335845947266,"417":-0.01275518536567688,"418":-0.03262392804026604,"419":0.011874771676957607,"420":0.12786832451820374,"421":0.14745280146598816,"422":0.028942540287971497,"423":-0.9572233557701111,"424":0.04769841209053993,"425":-0.2871739864349365,"426":-0.5401572585105896,"427":-0.30814623832702637,"428":0.968734085559845,"429":-0.3182026147842407,"430":-0.049167826771736145,"431":0.09860221296548843,"432":0.4403131604194641,"433":-0.5228769183158875,"434":0.4155510365962982,"435":0.06534872949123383,"436":-1.4044625759124756,"437":0.083252914249897,"438":-0.2530045211315155,"439":-0.29126662015914917,"440":-0.39361143112182617,"441":0.5007781386375427,"442":0.07312233746051788,"443":-1.1425625085830688,"444":-0.4630400240421295,"445":1.0893609523773193,"446":0.18114860355854034,"447":1.2627882957458496,"448":0.027367958799004555,"449":-0.23840832710266113,"450":-0.19113747775554657,"451":-0.10858963429927826,"452":-0.006591887213289738,"453":-0.2558091878890991,"454":-1.644160270690918,"455":-0.223370760679245,"456":-0.18821562826633453,"457":-0.15497340261936188,"458":-0.31344345211982727,"459":1.554183006286621,"460":0.057614848017692566,"461":0.0718114897608757,"462":-0.18194788694381714,"463":0.3831748068332672,"464":-0.44676148891448975,"465":-0.3751468360424042,"466":0.11658459156751633,"467":0.7929804921150208,"468":-0.7031531929969788,"469":0.42852476239204407,"470":0.7777912616729736,"471":0.35712483525276184,"472":-1.0641192197799683,"473":0.7350465059280396,"474":-1.1232821941375732,"475":0.8437981605529785,"476":-1.0156302452087402,"477":-0.46352481842041016,"478":-1.0337470769882202,"479":0.14024516940116882,"480":0.3429097533226013,"481":0.27898916602134705,"482":-0.2267834097146988,"483":-0.08377493172883987,"484":-0.29872235655784607,"485":0.5554459691047668,"486":-0.0128445690497756,"487":0.5494488477706909,"488":0.5804687142372131,"489":1.3690484762191772,"490":0.8073018789291382,"491":0.07203635573387146,"492":0.3546818196773529,"493":0.3966923952102661,"494":-0.8500553369522095,"495":-0.16162718832492828,"496":-0.22361287474632263,"497":1.087694525718689,"498":0.4637030363082886,"499":-0.7859396934509277,"500":-0.14386464655399323,"501":1.1396434307098389,"502":0.289334774017334,"503":-0.7126898169517517,"504":0.9343795776367188,"505":-0.729224443435669,"506":1.0985428094863892,"507":-0.5232713222503662,"508":-0.830129861831665,"509":0.5240470170974731,"510":-0.03971240296959877,"511":0.2896042466163635,"512":0.8020537495613098,"513":-0.8093112111091614,"514":-0.8375920653343201,"515":0.09745750576257706,"516":0.32728153467178345,"517":-0.7043819427490234,"518":0.8666538596153259,"519":0.1983114629983902,"520":0.4245914816856384,"521":-0.3438677489757538,"522":1.1158320903778076,"523":1.3191072940826416,"524":0.469698041677475,"525":0.17169547080993652,"526":-1.2911889553070068,"527":-0.5225939154624939,"528":0.8132010102272034,"529":0.962276816368103,"530":-0.9782862663269043,"531":0.3275972008705139,"532":0.7108610272407532,"533":0.7207537293434143,"534":-0.8723315000534058,"535":0.8521952033042908,"536":-0.6510636806488037,"537":1.0696821212768555,"538":-0.7563433647155762,"539":-0.9285219311714172,"540":-0.10009647160768509,"541":-0.34564200043678284,"542":0.6338703036308289,"543":0.6635412573814392,"544":-0.7905606031417847,"545":-0.8116856813430786,"546":-0.15006838738918304,"547":0.6959706544876099,"548":-0.7457799315452576,"549":0.9955125451087952,"550":0.0931844487786293,"551":-0.5320021510124207,"552":-0.4463016390800476,"553":0.8427913784980774,"554":1.1775580644607544,"555":0.5111167430877686,"556":-0.012832103297114372,"557":-1.168623685836792,"558":0.5927340984344482,"559":-0.2596661448478699,"560":0.04085586592555046,"561":0.4696740210056305,"562":-0.9940838813781738,"563":0.05586715787649155,"564":-1.0492383241653442,"565":0.05387140065431595,"566":-0.3278839886188507,"567":-0.870331883430481,"568":-0.04535169526934624,"569":0.12818017601966858,"570":0.38082849979400635,"571":0.46542832255363464,"572":1.0776194334030151,"573":-0.841201663017273,"574":-0.26525068283081055,"575":0.11090182512998581,"576":0.49625420570373535,"577":1.2594844102859497,"578":-0.3091804087162018,"579":0.3183102607727051,"580":-0.4821009039878845,"581":-0.8954793810844421,"582":-0.6202016472816467,"583":-1.0850672721862793,"584":-0.23845556378364563,"585":0.3233191668987274,"586":-0.9768102169036865,"587":0.6171380281448364,"588":0.45511960983276367,"589":0.4583591818809509,"590":0.20142635703086853,"591":1.2773736715316772,"592":-0.02291763201355934,"593":-0.6842283010482788,"594":0.22317886352539062,"595":-0.744905412197113,"596":-0.18563786149024963,"597":0.12983180582523346,"598":-0.449905127286911,"599":0.0989917665719986,"600":-1.7461751699447632,"601":0.05244330316781998,"602":-0.943279504776001,"603":0.605759859085083,"604":-0.595456063747406,"605":-0.17099450528621674,"606":0.0731922835111618,"607":0.12061189115047455,"608":0.34708234667778015,"609":0.22629456222057343,"610":-0.3358685076236725,"611":-0.011170567944645882,"612":-0.5579034090042114,"613":0.017696231603622437,"614":-0.3122906982898712,"615":0.15895651280879974,"616":-0.04563086852431297,"617":-0.517689049243927,"618":-0.8218389749526978,"619":-0.8456196784973145}},"outputHidden":{"rows":20,"columns":20,"weights":{"0":0.3283649981021881,"1":0.17773252725601196,"2":0.2185811698436737,"3":0.16500228643417358,"4":0.3689297139644623,"5":0.22303718328475952,"6":-0.07756774127483368,"7":0.19586554169654846,"8":-0.1488264501094818,"9":-0.30747759342193604,"10":0.4964699149131775,"11":0.4331488609313965,"12":-0.4780319333076477,"13":-0.48435771465301514,"14":0.06643213331699371,"15":-0.3577985465526581,"16":-0.16175441443920135,"17":0.312386691570282,"18":-0.4074874520301819,"19":0.6529572606086731,"20":-0.22077234089374542,"21":-0.453475683927536,"22":-0.27250465750694275,"23":0.10981381684541702,"24":0.12267521768808365,"25":-0.476695716381073,"26":0.43729349970817566,"27":-0.670981764793396,"28":-0.2352169305086136,"29":0.27660486102104187,"30":0.6112064123153687,"31":-0.39325737953186035,"32":-0.1322532296180725,"33":-0.6190739870071411,"34":0.31340888142585754,"35":-0.8019054532051086,"36":0.28555163741111755,"37":-0.24875153601169586,"38":0.4109600782394409,"39":-0.007276561111211777,"40":-0.10742713510990143,"41":-0.12982358038425446,"42":-0.13647499680519104,"43":-0.2703714072704315,"44":-0.10247227549552917,"45":-0.13538287580013275,"46":0.25567826628685,"47":-0.16482700407505035,"48":0.004338279366493225,"49":-0.0474691167473793,"50":-0.3134744167327881,"51":-0.03231362625956535,"52":0.05883600935339928,"53":-0.22460541129112244,"54":-0.2511364817619324,"55":0.017698895186185837,"56":0.24586963653564453,"57":-0.18410353362560272,"58":-0.0851980671286583,"59":-0.28653043508529663,"60":-1.3579622507095337,"61":-0.13547854125499725,"62":-1.138506293296814,"63":-1.446346402168274,"64":0.10033152997493744,"65":-0.9678475856781006,"66":1.0860414505004883,"67":0.3917962610721588,"68":-0.8010860681533813,"69":0.10585881024599075,"70":0.5830225348472595,"71":0.2891015410423279,"72":-0.28569188714027405,"73":0.5302867889404297,"74":0.38267025351524353,"75":0.3103545904159546,"76":1.276242733001709,"77":-1.3027039766311646,"78":0.16818717122077942,"79":0.09352818876504898,"80":-0.5434765219688416,"81":0.11876566708087921,"82":-0.5763762593269348,"83":-0.15818198025226593,"84":0.19698503613471985,"85":-0.5737404823303223,"86":0.6771584749221802,"87":-0.11381459981203079,"88":-0.44303444027900696,"89":0.48650097846984863,"90":0.44852548837661743,"91":-0.41036033630371094,"92":0.049812790006399155,"93":0.31476810574531555,"94":0.04080071300268173,"95":-0.23769038915634155,"96":0.5074918866157532,"97":-0.4075589179992676,"98":0.23425233364105225,"99":0.23914717137813568,"100":0.16934075951576233,"101":-0.19330137968063354,"102":-0.10880489647388458,"103":0.48871493339538574,"104":-0.7727382779121399,"105":0.11071909219026566,"106":0.005334957968443632,"107":0.2712697386741638,"108":0.10825099796056747,"109":-0.16358564794063568,"110":0.04261786490678787,"111":0.4227665960788727,"112":0.12819242477416992,"113":-0.2957937717437744,"114":-0.19526436924934387,"115":0.21760885417461395,"116":-0.020855892449617386,"117":0.19884543120861053,"118":-0.24937450885772705,"119":-0.33158934116363525,"120":0.15189704298973083,"121":-0.022336136549711227,"122":0.06964689493179321,"123":-0.16829802095890045,"124":-0.757542610168457,"125":0.1544545590877533,"126":-0.1757795661687851,"127":0.9515432715415955,"128":0.22372296452522278,"129":-0.20980533957481384,"130":0.00016222006524913013,"131":1.1206220388412476,"132":0.6363626718521118,"133":-1.4537672996520996,"134":-0.16794149577617645,"135":-0.3889913558959961,"136":-0.10020919144153595,"137":0.10887753963470459,"138":-1.1622374057769775,"139":-0.04771828278899193,"140":-0.3541499972343445,"141":0.6918320655822754,"142":-0.26188233494758606,"143":-0.40300968289375305,"144":-0.4642932713031769,"145":-0.4394647181034088,"146":0.4847725033760071,"147":-0.03544905409216881,"148":-0.38467228412628174,"149":0.434094101190567,"150":0.3527763783931732,"151":-0.051717933267354965,"152":0.3247610032558441,"153":-0.09748248755931854,"154":-0.30202099680900574,"155":-0.006809663958847523,"156":0.3183721601963043,"157":-0.4466681182384491,"158":-0.27261772751808167,"159":0.365820974111557,"160":0.31032848358154297,"161":0.4597945511341095,"162":0.42307910323143005,"163":0.6217669248580933,"164":-0.6283769607543945,"165":0.6315262317657471,"166":-0.3651876747608185,"167":0.455887109041214,"168":0.28689488768577576,"169":-0.3401472866535187,"170":-0.2683780789375305,"171":0.11468840390443802,